{"network": {"layers": [{"out_depth": 1, "out_sx": 24, "out_sy": 24, "layer_type": "input"}, {"sx": 5, "sy": 5, "stride": 1, "in_depth": 1, "out_depth": 8, "out_sx": 24, "out_sy": 24, "layer_type": "conv", "l1_decay_mul": 0, "l2_decay_mul": 1, "pad": 2, "filters": [{"sx": 5, "sy": 5, "depth": 1, "w": {"0": -0.6621659130786604, "1": -0.25251807255271613, "2": -0.19649909373331048, "3": -0.677327626604203, "4": -0.7561936292648315, "5": -0.19206868788656598, "6": -0.035303726707419554, "7": 0.10196862138715423, "8": -0.7426289329764448, "9": -1.1175247172346763, "10": 0.026555605127362724, "11": 0.21298232691100866, "12": -0.09206509282531725, "13": -0.4338228156462119, "14": -0.871249744716399, "15": 0.74818529462963, "16": 0.6223830801649795, "17": 0.20495972819893374, "18": -0.03229487643475164, "19": -0.5952176632541641, "20": 0.6571087421477533, "21": 0.8730584400448365, "22": 0.969013929373214, "23": 1.069637568887401, "24": 0.8042066388831284}}, {"sx": 5, "sy": 5, "depth": 1, "w": {"0": -0.1463019136733087, "1": -0.21679029934159383, "2": 0.0467967694697096, "3": -0.23376960414412026, "4": 0.1847251029813197, "5": 0.2141216999027933, "6": 0.24191293097082583, "7": -0.10518790766669409, "8": 0.37382269391197437, "9": 0.08596847366192978, "10": 0.965400524172864, "11": 1.050927905319801, "12": 0.9532071922637027, "13": 0.8860646372603728, "14": 0.5587268308978106, "15": 0.23035360080407605, "16": 0.286457150577123, "17": 0.6334360324898906, "18": 0.9170919299103883, "19": 0.5364407159365338, "20": -0.14081594764286337, "21": 0.0669792771138546, "22": -0.2754673387068153, "23": -0.12488345275030187, "24": 0.38606309699216573}}, {"sx": 5, "sy": 5, "depth": 1, "w": {"0": -0.4335344178101549, "1": -0.8656468538852544, "2": -0.763321291959317, "3": -0.8823050080088916, "4": -0.8528657184356868, "5": -0.7339599942334569, "6": -0.48677545481046175, "7": -0.679855892032107, "8": -0.44530039681747646, "9": -0.38109686399829956, "10": 0.33599722188302206, "11": -0.04792205914983326, "12": -0.3950340775099803, "13": -0.03415996816058981, "14": -0.09122161863677104, "15": 0.7110767193078806, "16": 0.3774311302437012, "17": 0.8649744034778084, "18": 0.4275852361511075, "19": 0.23189905771558167, "20": 0.536186990239999, "21": 0.5060860048444149, "22": 0.5135971586070719, "23": 0.7710215221700983, "24": 0.346049347624106}}, {"sx": 5, "sy": 5, "depth": 1, "w": {"0": -0.6835117601711808, "1": 0.004883143469083499, "2": -0.13797217626664784, "3": -0.17746249318992757, "4": -0.7628394292062425, "5": 0.017207211930693238, "6": 0.1181226666733825, "7": 0.7336145129268592, "8": 0.47706804166650735, "9": -0.1497971650469777, "10": 0.3091632624412384, "11": 0.6163163748871435, "12": 1.0887542086758895, "13": 0.6899418406169394, "14": 0.3591773278243091, "15": 0.3527088056049093, "16": 0.9848447763787614, "17": 1.0190163416779319, "18": 0.41013235131785075, "19": -0.022898725624471716, "20": 0.13893892173389058, "21": 0.7994328674285746, "22": 0.473966418721263, "23": 0.008505308929354024, "24": -0.24781274445446272}}, {"sx": 5, "sy": 5, "depth": 1, "w": {"0": -0.03221959771533488, "1": -0.4950564509775485, "2": -0.5672660803953029, "3": -0.7781456887377504, "4": -0.8149676314505822, "5": -0.22767351519883636, "6": -0.5864064978083169, "7": -0.8268775620898182, "8": -0.841797480898098, "9": -0.4312451464615628, "10": -0.45320221148575707, "11": -0.7793861346575733, "12": -0.5109682538516113, "13": -0.8370560855698141, "14": -0.042587867730035776, "15": -0.4462828197136536, "16": -0.47223764757964437, "17": -0.5272512802477659, "18": -0.47125852148817265, "19": 0.04411849515624458, "20": -0.24505412955883166, "21": -0.08018037893614745, "22": -0.3027390256060616, "23": 0.31759307160864364, "24": 1.1980550005309607}}, {"sx": 5, "sy": 5, "depth": 1, "w": {"0": 0.20924826394052956, "1": -0.14261657491472915, "2": -0.5199227528930457, "3": -0.41553720457078935, "4": -0.794800439462089, "5": 0.18697317651574163, "6": -0.317297938015481, "7": -0.6099097607292299, "8": -0.7262945471899126, "9": -0.9161582758533584, "10": -0.11629197365445114, "11": -0.38225669309479254, "12": -0.7507277339901491, "13": -0.829684200673179, "14": -0.9600771188683288, "15": 0.07132828518574538, "16": -0.4178144302561251, "17": -0.6403526683199088, "18": -0.7931584051968562, "19": -0.7325337380851846, "20": -0.04610803978842338, "21": -0.4170238567927714, "22": -0.35988131385437944, "23": -0.8200304772469809, "24": -0.15648463159953593}}, {"sx": 5, "sy": 5, "depth": 1, "w": {"0": 1.0035134329655793, "1": 0.9014400042651558, "2": -0.1345565503716848, "3": -0.13990666927382953, "4": -0.020930028490603346, "5": 0.06322015956898852, "6": -0.4082941442599053, "7": -0.6450838528607276, "8": -0.21624679679994555, "9": -0.5577806390206229, "10": -0.10787469464192216, "11": -0.8651709753527055, "12": -0.6588260983213499, "13": -0.9668795379923372, "14": -0.6607094740872372, "15": -0.340570272153318, "16": -0.6661523397709532, "17": -0.7987680684752578, "18": -0.5392032017354774, "19": -0.596045345318389, "20": -0.043847867989600976, "21": -0.9416808157546093, "22": -0.8295857607743796, "23": -0.16900389806789248, "24": 0.05841516400747508}}, {"sx": 5, "sy": 5, "depth": 1, "w": {"0": -0.7214557519466636, "1": -0.265166983880021, "2": -0.3912127853154653, "3": -0.24704279177791474, "4": -0.7196303922392702, "5": 0.18675044332985702, "6": 0.062253277047201024, "7": 0.2770053429181379, "8": 0.2304612470982732, "9": -0.015172870629264775, "10": 0.01614915186755157, "11": 0.7461088824191984, "12": 0.9439025562158884, "13": 0.8003875586976356, "14": 0.7342533209449016, "15": 0.10661310349298399, "16": 0.7440439689110032, "17": 1.1164973921025558, "18": 0.49729703686827836, "19": 0.34398141902254575, "20": -0.09704223430345663, "21": 0.27733314306740087, "22": -0.14703207932857798, "23": -0.06207440241125766, "24": 0.39866183907464}}], "biases": {"sx": 1, "sy": 1, "depth": 8, "w": {"0": -0.8829709764466273, "1": -1.0562062720904188, "2": -0.8898845350422794, "3": -1.425130217884228, "4": 0.7508962187241596, "5": 0.9528184505780777, "6": 1.0000610807165657, "7": -1.0678640172644}}}, {"out_depth": 8, "out_sx": 24, "out_sy": 24, "layer_type": "sigmoid"}, {"sx": 2, "sy": 2, "stride": 2, "in_depth": 8, "out_depth": 8, "out_sx": 12, "out_sy": 12, "layer_type": "pool", "pad": 0}, {"sx": 5, "sy": 5, "stride": 1, "in_depth": 8, "out_depth": 16, "out_sx": 12, "out_sy": 12, "layer_type": "conv", "l1_decay_mul": 0, "l2_decay_mul": 1, "pad": 2, "filters": [{"sx": 5, "sy": 5, "depth": 8, "w": {"0": -0.21328403511825808, "1": -0.13903228317688507, "2": -0.05524359503583101, "3": -0.19516309298920195, "4": 0.15320526407061336, "5": 0.0792091106578375, "6": 0.2780322642651837, "7": -0.06447441393059927, "8": -0.038461709750897716, "9": -0.06155425501379188, "10": -0.035748506948931245, "11": -0.06295991709178689, "12": 0.04859369060660045, "13": 0.10303521694749365, "14": 0.08911505121439742, "15": -0.17201338567188307, "16": 0.0005379315353536227, "17": 0.003804446110178489, "18": -0.08957637940264315, "19": -0.013439982392788393, "20": -0.10045633830624426, "21": -0.02574706795250945, "22": -0.1295880189202826, "23": -0.13277114953719904, "24": 0.06826052951146258, "25": 0.11107860958931619, "26": 0.21275566725540523, "27": 0.09220483648071205, "28": 0.12601585277340427, "29": 0.20382537597900258, "30": 0.12029467557277627, "31": -0.07760476426465251, "32": 0.21060926499817717, "33": 0.002807500433236982, "34": 0.17483712419205596, "35": -0.04559022850450408, "36": 0.1725185020040394, "37": -0.06838349577397435, "38": 0.0846202696818549, "39": 0.09192934037095185, "40": -0.26516931501467994, "41": -0.26045744263263676, "42": -0.24684325668265056, "43": -0.39910849081853456, "44": 0.1749004080191035, "45": 0.25155576903740395, "46": 0.36031781395975304, "47": -0.2884480123459288, "48": -0.3378538412396595, "49": -0.1374068043733416, "50": -0.19002308554263844, "51": -0.30375944250597414, "52": 0.05264339378824001, "53": 0.1079941886358825, "54": 0.1517762114070098, "55": -0.0656798830661871, "56": -0.1687244056223097, "57": 0.03869686036922915, "58": -0.09988081754088864, "59": -0.09209492655220024, "60": -0.019610104836814905, "61": -0.11495141193173103, "62": -0.14656204787968397, "63": 0.06682574481332361, "64": 0.1321234916626225, "65": 0.24909620811614533, "66": 0.2328862517500468, "67": 0.08557420533800932, "68": 0.10129140683118965, "69": 0.07088003472065485, "70": 0.16407862953560168, "71": 0.0897120883258374, "72": 0.12947933636545544, "73": -0.06725868101569667, "74": 0.1978546317079983, "75": 0.1379267353636762, "76": -0.14539765303453775, "77": -0.3216926998667816, "78": -0.2200328863882346, "79": 0.17713693552073384, "80": -0.02484439310166339, "81": -0.45589793815481156, "82": -0.2301180235451636, "83": -0.4243594221792768, "84": 0.07417454616280254, "85": 0.20564149610649426, "86": 0.26707842569772156, "87": -0.5647976448085921, "88": -0.20669449053443115, "89": -0.46756939025781397, "90": -0.36702406181591074, "91": -0.5099376611672807, "92": -0.06963968653053353, "93": 0.06809521702710129, "94": -0.003134619234057622, "95": -0.3640336405292435, "96": -0.35144018205553124, "97": -0.36523534294419846, "98": -0.3563550344874224, "99": -0.5033096065619086, "100": -0.27899191349929153, "101": 0.002114836612924215, "102": -0.09652840926245261, "103": -0.33645512679615336, "104": -0.3918142414816567, "105": -0.16728820602477892, "106": -0.321518095584198, "107": -0.07466015978373336, "108": -0.06853029062200015, "109": 0.0748960143414932, "110": 0.1425812314123674, "111": -0.198165377676734, "112": -0.5797182161086198, "113": -0.15552105312492742, "114": -0.390463805905683, "115": -0.11146465157536621, "116": -0.319269076678134, "117": -0.15945885682690103, "118": 0.03708032973114378, "119": -0.15449089930627513, "120": 0.37165356492173157, "121": -0.2155247823002868, "122": 0.2517014945358944, "123": -0.009854490126726222, "124": 0.13144323798911314, "125": 0.0662216996015291, "126": 0.0980037425265749, "127": -0.08251449152827524, "128": 0.3413342222532127, "129": -0.3097104343379671, "130": 0.22053807070546202, "131": -0.04865443790348779, "132": 0.13341625700012608, "133": 0.2552040046782801, "134": 0.19092536049945896, "135": -0.08019731478004984, "136": 0.0033502870742864272, "137": -0.3923135943304642, "138": 0.01743384749565715, "139": -0.3484241334310534, "140": 0.10117092793458149, "141": 0.10324470831688515, "142": 0.04318792206146384, "143": -0.5293586046918987, "144": 0.1465189230824259, "145": -0.5897468618439695, "146": 0.049059498849519254, "147": -0.3296352407843995, "148": 0.15249720221302532, "149": 0.1612648240059451, "150": 0.15345013929226986, "151": -0.6223249201455443, "152": -0.061362516619587124, "153": -0.3898755064339388, "154": -0.2600068598649173, "155": -0.43184063406285, "156": 0.008018761655730653, "157": 0.20665128185903653, "158": 0.17453461251358868, "159": -0.42340667447246416, "160": 0.3965251478982939, "161": 0.20002516793234415, "162": 0.3612401105445041, "163": 0.1777032542947556, "164": -0.054894185295983486, "165": -0.07805301786122093, "166": -0.15651603092095728, "167": 0.3609799838691526, "168": 0.5619674731408899, "169": 0.15757387806999734, "170": 0.4943315730259822, "171": 0.39293314869768914, "172": 0.1278740473846975, "173": -0.003425812449336806, "174": -0.13020979959854495, "175": 0.2299400550503396, "176": 0.3094819362569854, "177": -0.0010542732844080627, "178": 0.33037735232313337, "179": 0.12788699612305854, "180": 0.08801349552614782, "181": -0.06551036780905477, "182": -0.09631647330780721, "183": -0.029419684694289846, "184": 0.487850788711435, "185": -0.09894451173582093, "186": 0.27432780119314826, "187": 0.08140533206326199, "188": 0.1458330256402474, "189": 0.11629345776996938, "190": 0.033244249322481254, "191": 0.04420611925050568, "192": 0.33070875808692285, "193": -0.1043804184479561, "194": 0.23351658956974428, "195": 0.004649017699501025, "196": 0.02506935512634348, "197": 0.049565208452959475, "198": -0.03453679922691846, "199": -0.157566562661975}}, {"sx": 5, "sy": 5, "depth": 8, "w": {"0": -0.23976067177608593, "1": 0.11653496859010753, "2": -0.12463588171122211, "3": -0.02142940481887945, "4": -0.055327457343306845, "5": 0.0005453180800999212, "6": -0.014670064286251965, "7": -0.044152685131110224, "8": -0.009988321069624013, "9": -0.04040568941530533, "10": -0.07388431913173255, "11": -0.03978327656336024, "12": 0.10830994824864101, "13": 0.02709457560899112, "14": 0.002372672374985625, "15": -0.07748503006906683, "16": -0.08902066298846845, "17": -0.08367401383235812, "18": -0.1742815319326997, "19": -0.19563780318496804, "20": -0.09983775424122346, "21": 0.03949882202063112, "22": 0.02370735212017583, "23": -0.12815216544110647, "24": -0.05047510607606697, "25": 0.01326132965325507, "26": 0.025364604025157667, "27": -0.11423091225195217, "28": -0.048051317662333004, "29": -0.011296368383894417, "30": 0.1609657267564244, "31": -0.09698783721057712, "32": -0.17311147542103858, "33": 0.018867136864284397, "34": -0.12789748488622318, "35": -0.1637302975172561, "36": -0.13612085942666471, "37": 0.0637344523987234, "38": -0.12542736890144277, "39": 0.025463543555705563, "40": -0.07985169383441276, "41": -0.11533345195513119, "42": -0.058916220690532733, "43": -0.1005595189085821, "44": 0.07013131918354604, "45": -0.05879609353476763, "46": 0.04094933959452184, "47": -0.06306473139690168, "48": -0.11027483596019802, "49": -0.12789673786505287, "50": 0.03377393350676527, "51": -0.07461667653386783, "52": -0.12166036997029907, "53": 0.13602406192776653, "54": 0.16220291949435386, "55": -0.031648833475238516, "56": -0.11828001711151918, "57": -0.1211573793001334, "58": -0.06920401377812088, "59": -0.26404435423416484, "60": 0.04155332846628695, "61": -0.027427120207954698, "62": 0.08962665346758561, "63": -0.1781720707863157, "64": -0.011410608741087461, "65": -0.14928167867955933, "66": 0.0005391355563743204, "67": -0.06626244439394517, "68": 0.08323215684369382, "69": -0.011874047306265357, "70": -0.0009987057967738567, "71": -0.18652726141683706, "72": -0.0478717469492735, "73": -0.06591755029577734, "74": -0.12909786904411777, "75": -0.30233575452612005, "76": 0.04547721015180138, "77": 0.06409620385933777, "78": 0.14015902452269352, "79": -0.12799156186787589, "80": -0.06515442233994236, "81": 0.012515977931311754, "82": -0.01778256873504145, "83": -0.1998662444476536, "84": -0.010809710256292796, "85": 0.011538717554174157, "86": -0.052872726777092066, "87": -0.001905394305036476, "88": 0.012175142303473396, "89": -0.05733906206641635, "90": -0.17874470859219796, "91": -0.24417202833959778, "92": 0.038332725528485274, "93": -0.052201268707031456, "94": 0.007636542549519428, "95": -0.16156567488598306, "96": -0.1728644216747938, "97": -0.11195969438262182, "98": -0.2672500905994941, "99": -0.18272820089809025, "100": -0.08549502995622087, "101": -0.027066336238034863, "102": -0.10062637139762055, "103": -0.12241942748344857, "104": 0.040967515048505425, "105": -0.13232277878047813, "106": -0.15483514931971085, "107": -0.1578801237187011, "108": -0.017661076418345575, "109": 0.08575390497856371, "110": 0.03735679740929218, "111": -0.0825376977560702, "112": -0.01738354157597254, "113": -0.015461323148978986, "114": -0.05050492588401025, "115": -0.010272827752629478, "116": 0.08671194053923048, "117": -0.02342305971262541, "118": -0.051872459504869524, "119": 0.0697599627462198, "120": -0.09287973329064725, "121": 0.07027503643873936, "122": -0.003704431647287374, "123": -0.08763263323531714, "124": -0.10658305155531822, "125": -0.05607007519713948, "126": -0.014445096655618427, "127": -0.1084428901366319, "128": -0.0011282039231204628, "129": 0.0831740127290014, "130": -0.15590273173685093, "131": 0.0208898672312142, "132": -0.06972110842449211, "133": 0.009224954633092627, "134": 0.015481966263427828, "135": -0.051499123259431866, "136": -0.005737434602277685, "137": -0.11993063566652974, "138": -0.10241081920198708, "139": -0.061104706862885355, "140": -0.15557423064074294, "141": -0.15161425545504328, "142": -0.1161582140899343, "143": -0.1675855822375189, "144": -0.04308717814409115, "145": -0.0064466310588409004, "146": -0.1145027521054445, "147": -0.018583706899768435, "148": -0.166485943237405, "149": 0.05767891324175266, "150": 0.02692403590440701, "151": -0.06678086443277001, "152": -0.026778911551338887, "153": -0.06711912200981936, "154": -0.05740920438685173, "155": -0.09087792685420423, "156": -0.08360751768307063, "157": 0.018587954174854256, "158": -0.048925224926710704, "159": 0.03418662123955731, "160": 0.012558891716727019, "161": -0.040797154612794664, "162": -0.1884398389340073, "163": -0.0384613951373312, "164": -0.0800110401070242, "165": -0.04954255354832938, "166": -0.07734277619225757, "167": -0.09501381207622893, "168": -0.027954051983532596, "169": -0.03194111522118224, "170": -0.005707893398428224, "171": -0.1178461099747753, "172": 0.045809910626106905, "173": 0.11393486063989348, "174": 0.020783061962361973, "175": -0.0570201548302475, "176": -0.07270769595342866, "177": -0.06942076477852024, "178": -0.07180763427704086, "179": 0.05292602905273108, "180": -0.07175808796384832, "181": 0.09346562758761896, "182": -0.10265740988405679, "183": -0.12957750596385853, "184": -0.2586259974436774, "185": -0.08974357022277098, "186": -0.06772177391395133, "187": -0.11689671419840858, "188": -0.01877328411895693, "189": -0.03438548579453726, "190": 0.017787066595813472, "191": -0.0018615575273069908, "192": -0.12507111319940048, "193": -0.06736753853709518, "194": -0.16095728924288363, "195": -0.06858756191205259, "196": -0.018636957049877268, "197": -0.09450183078518753, "198": -0.07302530284660676, "199": -0.09384629570810724}}, {"sx": 5, "sy": 5, "depth": 8, "w": {"0": 0.2983379460012105, "1": 0.17681932910782264, "2": 0.16426375952728842, "3": 0.09126319961005291, "4": -0.04091439841250451, "5": -0.19813154765646127, "6": -0.17440066391892028, "7": 0.06949849178778018, "8": 0.2953368403207515, "9": 0.03876346767279679, "10": 0.27852967832342834, "11": 0.21732999089703278, "12": 0.13408642980339186, "13": -0.18002702116533292, "14": -0.12499745350487843, "15": 0.13305409560554346, "16": 0.44719625948458647, "17": -0.005356134125943933, "18": 0.3254429089104997, "19": 0.2400309785954582, "20": -0.03711095351253045, "21": -0.5616647522113636, "22": -0.5096092528530217, "23": 0.11925994029681121, "24": 0.42619590503091476, "25": 0.22315018021675037, "26": 0.5337917432190425, "27": 0.2453349638367221, "28": -0.08896382982380062, "29": -0.4685536530742343, "30": -0.5025832711916528, "31": 0.3365357201496614, "32": 0.5654198584144549, "33": 0.2313462411694887, "34": 0.6370337791498957, "35": 0.42737563565257236, "36": -0.10998727426026231, "37": -0.16687251568108896, "38": -0.5019107178039736, "39": 0.17104289242221873, "40": -0.09497480561536074, "41": 0.08429767427099084, "42": 0.05388030534926402, "43": 0.08787451547241024, "44": -0.17025740320769728, "45": -0.10087486113272043, "46": -0.20288264950963253, "47": 0.15567790315745886, "48": -0.15583789396755887, "49": 0.04490383132060194, "50": -0.039071939018794584, "51": 0.2637055952245934, "52": -0.3765065456994161, "53": -0.45888182884366274, "54": -0.40660669372637487, "55": 0.24396567995319132, "56": -0.3564772695873968, "57": -0.08017340399511182, "58": 0.17058192254272248, "59": 0.21183435962034905, "60": -0.7716836796869342, "61": -0.5282254932023379, "62": -0.492902309859649, "63": 0.11888286222028124, "64": -0.21142233905721688, "65": 0.21909526572220223, "66": 0.07779378371114323, "67": 0.18632985564966797, "68": -0.5126145825648334, "69": -0.4325004533039034, "70": -0.46465219314647255, "71": 0.19164731773351587, "72": -0.15795613852117438, "73": 0.34994874158218386, "74": 0.22124454886936484, "75": 0.5241563739530334, "76": -0.462128699461522, "77": -0.6868796508155963, "78": -0.5085325953246363, "79": 0.4627298595544881, "80": -0.2639211322077397, "81": -0.20799282950538978, "82": -0.25350388685339303, "83": -0.1617436725533746, "84": -0.032109111381587126, "85": -0.036725649996537206, "86": 0.05139363129656027, "87": -0.3429482255322448, "88": -0.03440891170724228, "89": -0.3568853131338125, "90": -0.3114934719806923, "91": -0.24349235113000933, "92": -0.09376672438944414, "93": -0.08449904612011565, "94": 0.13671181969494173, "95": -0.35046716411650514, "96": -0.25522521221714267, "97": -0.45941026254597855, "98": -0.34348055849858705, "99": -0.2893885776565364, "100": -0.04018569766899134, "101": 0.03240893999753383, "102": 0.3181674842507905, "103": -0.5316511635637668, "104": -0.48688533165368797, "105": -0.2208790746816773, "106": -0.12329420423322147, "107": -0.24791487808957371, "108": 0.2055238670347134, "109": 0.05983553838992732, "110": 0.40902839954644854, "111": -0.3659066834894604, "112": -0.32697243718015484, "113": -0.0005176209135941252, "114": -0.13061765718259416, "115": -0.09348354553889852, "116": -0.178060696500416, "117": -0.20528939588993086, "118": 0.009653907742251925, "119": 0.013912004145950726, "120": 0.09810696169525579, "121": -0.2751895797232906, "122": 0.25211598191288437, "123": -0.15245293208761176, "124": 0.21216653532554164, "125": 0.13340846243913465, "126": 0.15865736162038185, "127": -0.18859000661482925, "128": 0.37975839220118185, "129": -0.234761142613748, "130": 0.2829225118601116, "131": -0.14813641817585527, "132": 0.27873720305761535, "133": 0.21839875472110487, "134": 0.016492818888877808, "135": -0.20050333213815813, "136": 0.1786650834370448, "137": -0.33826986807919723, "138": 0.3332436201159625, "139": -0.33146582236652805, "140": 0.30055219831848495, "141": 0.05925890117661605, "142": -0.1039185718428459, "143": -0.1510431896400048, "144": -0.03259863974384165, "145": -0.32865599973601045, "146": 0.491042942554174, "147": -0.3071778352556386, "148": 0.46528568862852615, "149": 0.20522579588276413, "150": 0.31061312862737056, "151": -0.2407827046884949, "152": 0.062033489453433184, "153": -0.003000795842586338, "154": 0.1970959797652783, "155": -0.18299289326996662, "156": 0.2594432726099783, "157": 0.023570405754144885, "158": 0.11187672326866019, "159": -0.022844020717550585, "160": 0.09083762578057177, "161": -0.034597579999472404, "162": 0.025192824564366438, "163": 0.13744875854502817, "164": 0.06034178181324839, "165": -0.11802769288321285, "166": -0.1798541964732111, "167": 0.03410808133943377, "168": 0.052271089831584204, "169": 0.025529334019041106, "170": 0.09056494500415348, "171": 0.08582115725357146, "172": -0.12650893843379452, "173": -0.1511495779588402, "174": -0.24700436935135017, "175": 0.11336222972177273, "176": -0.12751894403561526, "177": -0.167681125652491, "178": -0.03912653179463631, "179": -0.04372231231177263, "180": -0.054978463371789674, "181": -0.2476029847636717, "182": -0.22693992802346427, "183": -0.13373795853730305, "184": 0.013297091490567781, "185": -0.08377967098412097, "186": 0.05445811369317012, "187": -0.06343755473237427, "188": 0.1760972904957248, "189": -0.002493600741778639, "190": -0.2003626442729887, "191": -0.13305979992893757, "192": -0.033432740592728695, "193": 0.03317772519412089, "194": -0.07791504040146374, "195": 0.07778473946477078, "196": 0.0983124681703227, "197": -0.10946047048248322, "198": 0.05241179842519615, "199": 0.06768636425930558}}, {"sx": 5, "sy": 5, "depth": 8, "w": {"0": -0.12063261147545976, "1": -0.1320027636866993, "2": -0.20871483006085634, "3": -0.1886773725221033, "4": 0.20424734809195888, "5": 0.19335364528413282, "6": 0.25162482565290606, "7": -0.2064441784882651, "8": -0.07426454739742333, "9": -0.2008829396110335, "10": -0.07296772459599783, "11": -0.24958007369200774, "12": 0.18458894814575325, "13": 0.23757917889132368, "14": 0.19691728076589052, "15": -0.26013847466566686, "16": -0.20069103643541356, "17": -0.07331811274408076, "18": -0.15270798644902533, "19": -0.11599081672019505, "20": 0.0661823838172533, "21": 0.058400488326278116, "22": 0.011382167140163667, "23": -0.09830607034980125, "24": -0.1324968473317763, "25": 0.2949290531614612, "26": -0.11426391763947716, "27": 0.08609258920079357, "28": -0.2533104150892606, "29": -0.12439075301665208, "30": 0.019000404936294086, "31": 0.09073980616714829, "32": 0.12119547561394997, "33": 0.17664114099529377, "34": -0.01649157901203937, "35": 0.18508149982709768, "36": -0.1739660843056236, "37": -0.17083215632635695, "38": -0.08223459907374216, "39": 0.10280860516548876, "40": -0.057071834479196344, "41": -0.35561420242282704, "42": -0.11983917896685187, "43": -0.23928403651920258, "44": 0.1888751964005449, "45": 0.174353691093265, "46": 0.24548783039478633, "47": -0.2421275852628624, "48": 0.000457189685740573, "49": -0.16852284447566027, "50": -0.09201851873852376, "51": -0.08278091891002289, "52": 0.2542028176525263, "53": 0.09077554154669167, "54": 0.2789987082205892, "55": -0.1247402684926828, "56": -0.05677178163647377, "57": 0.018959410661400587, "58": -0.09468157996143448, "59": -0.31515682099406916, "60": 0.02937026455705763, "61": 0.010135121253391013, "62": 0.12735893298717282, "63": -0.10418960571177584, "64": -0.2052943689610602, "65": 0.04191231781251622, "66": -0.22350819182665918, "67": -0.01798106429327578, "68": -0.039690779552400586, "69": -0.02483832308980952, "70": -0.081512509239263, "71": 0.10100229571730102, "72": 0.07007329431786903, "73": 0.11130479147162074, "74": -0.23956367151730684, "75": 0.283324791773168, "76": -0.18438739603177262, "77": -0.13768365432576685, "78": -0.17587542653615423, "79": 0.12322126384713543, "80": -0.11447574098960059, "81": -0.25903287078434034, "82": -0.17691656252357849, "83": -0.1763485026675406, "84": 0.2095261292774911, "85": 0.15898933882352664, "86": 0.14877833912555066, "87": -0.12137064699499762, "88": 0.05872564010710357, "89": -0.168243485259718, "90": -0.12225934991431221, "91": -0.2711672918647816, "92": 0.0366756658581222, "93": 0.08325370358373904, "94": 0.12492476492430822, "95": -0.1932720211092968, "96": -0.006977578405988022, "97": -0.26844558694570303, "98": -0.22095679577070254, "99": -0.19870932962134713, "100": 0.09052899924819188, "101": 0.11833396488147921, "102": -0.0605848459131079, "103": -0.13746097714423328, "104": -0.06588836739589084, "105": -0.12547361975857663, "106": -0.19060553693893523, "107": -0.16587026078820172, "108": 0.026681463385753855, "109": 0.007538008753182283, "110": -0.18354268618559422, "111": -0.17615794902825274, "112": -0.267992186521951, "113": 0.009225352975834102, "114": -0.17614191818928274, "115": 0.07349626553202529, "116": -0.06607874960108426, "117": -0.14127162556417988, "118": -0.17264757317918053, "119": 0.052995413164511604, "120": -0.17188778769376079, "121": -0.11510400110426486, "122": -0.09378130788623334, "123": -0.1432674604758426, "124": 0.05934337023863314, "125": 0.012916039050156269, "126": 0.055059512653161745, "127": 0.022377753843727435, "128": -0.005111420456665645, "129": -0.18086129938414558, "130": -0.16085702976967084, "131": -0.14481260948068536, "132": 0.04223567073647634, "133": 0.024776873161409356, "134": -0.022354654628814332, "135": -0.1629358509786764, "136": -0.09609374762065963, "137": -0.11445100144286185, "138": -0.0744459808302084, "139": -0.18109811802720868, "140": 0.07911278372204793, "141": -0.09272630695424573, "142": -0.05224500451108999, "143": -0.19298737622067313, "144": -0.021618245817433598, "145": -0.12886862534722052, "146": 0.03559965130739544, "147": -0.21289721704374437, "148": 0.09425579326674188, "149": 0.009519389711656756, "150": -0.12430145404827307, "151": -0.13068362110200227, "152": -0.07335804272130396, "153": -0.2254060366886369, "154": -0.1310909433495785, "155": -0.07941455556272108, "156": 0.004008583123199128, "157": -0.029845965865359442, "158": 0.1325514032559553, "159": -0.17618988229201996, "160": 0.030039788625329453, "161": -0.19711239474071937, "162": -0.04074369675141489, "163": -0.26317068286612766, "164": 0.1732400568419346, "165": 0.05864236557012635, "166": -0.023239908114834902, "167": -0.07403146597906812, "168": 0.170217835933163, "169": 0.024474254851589605, "170": 0.09531568039822269, "171": -0.08759943626330947, "172": 0.08210153501412305, "173": 0.018859634636361543, "174": 0.15539001224917715, "175": 0.018276528349210452, "176": 0.14306962333699194, "177": -0.19085239045829844, "178": 0.10075906233209567, "179": 0.034047260521794485, "180": 0.08055938223784917, "181": -0.00185379346800998, "182": -0.09021529597321915, "183": -0.0688192651875275, "184": 0.16791558115324634, "185": -0.07631281086766671, "186": 0.19446838801096678, "187": 0.01463834630092599, "188": 0.031204049303321154, "189": 0.04550176972096383, "190": 0.042781284457252766, "191": 0.09475445650806402, "192": 0.22188624765219372, "193": -0.16459552298643992, "194": 0.025141914578680764, "195": -0.06249713286373587, "196": -0.010792118905613135, "197": 0.07125780569492582, "198": -0.012543874501213822, "199": -0.1128784840595806}}, {"sx": 5, "sy": 5, "depth": 8, "w": {"0": -0.10443767760918624, "1": -0.15294248296502191, "2": -0.10627460216282038, "3": -0.4614645295547137, "4": 0.19003366732086358, "5": 0.36419856929094735, "6": 0.29443020826090927, "7": -0.2375474855799764, "8": -0.11307281923351609, "9": 0.13691489974612145, "10": -0.04290040278157302, "11": -0.1662309995439185, "12": 0.16674741799348797, "13": 0.05956378595744131, "14": 0.21341877419789962, "15": 0.05975538413102387, "16": 0.007804606518651447, "17": -0.048786058133239864, "18": -0.1688175546198582, "19": 0.05304014226561048, "20": -0.09042005617475776, "21": -0.12356462670882364, "22": -0.2391857983029926, "23": 0.03208798442927934, "24": 0.13916251741278013, "25": 0.06088059922874367, "26": 0.10989454048657457, "27": 0.0066557218218788695, "28": -0.09798127546527315, "29": -0.00793308386326758, "30": -0.11464946833696597, "31": 0.011698346009012935, "32": -0.04650934860793795, "33": -0.11838744386544878, "34": 0.0070814935472796724, "35": -0.12347876468089194, "36": 0.1330987659679066, "37": 0.39058785367955645, "38": 0.35962172775431156, "39": -0.1799357695712379, "40": -0.26731996509836015, "41": -0.22513948181087814, "42": -0.11066151993587475, "43": -0.5904418908283741, "44": 0.33048631635734665, "45": 0.2613874637780787, "46": 0.1714741307659544, "47": -0.27755740871399015, "48": -0.23421131619235538, "49": -0.04388551542147866, "50": -0.17380260964729974, "51": -0.1550234138162258, "52": 0.15542805952469688, "53": -0.11471001669428582, "54": 0.07658504256778272, "55": -0.03444849660273346, "56": -0.06405827730525192, "57": -0.06950997360013927, "58": -0.1911634870647385, "59": 0.13034749735008577, "60": -0.08584420989436738, "61": -0.28536843213651325, "62": -0.3375563172538528, "63": 0.020491365452633175, "64": 0.08031271371179953, "65": 0.04947489393938642, "66": 0.009878024042736402, "67": 0.020643292927216388, "68": 0.04344446114183248, "69": 0.11225610880367012, "70": -0.006367553789074502, "71": -0.11350400754186611, "72": -0.09971850022248187, "73": -0.2028271222202851, "74": 0.03167041482637211, "75": -0.33840013029587485, "76": 0.40779266301229145, "77": 0.4743338275367073, "78": 0.3399542661312722, "79": -0.30371858371877264, "80": -0.11511014731523585, "81": -0.36290519972619173, "82": -0.27770748000179996, "83": -0.5335115266210786, "84": 0.2967817142915097, "85": 0.33175091924913785, "86": 0.343276702900497, "87": -0.4042448152149047, "88": -0.29196896077974327, "89": -0.13003057582928176, "90": -0.2797483383805841, "91": -0.233911338900681, "92": 0.06820714580222702, "93": -0.1320203320740551, "94": -0.01365930850710251, "95": -0.1639032639764902, "96": -0.18590867566700722, "97": -0.05237820135636201, "98": -0.2613859770750429, "99": 0.023374580321951156, "100": -0.24832981898510206, "101": -0.0925294754563755, "102": -0.05950631690238145, "103": -0.23752589095864005, "104": -0.011329458538418866, "105": -0.18690746177766027, "106": -0.21533204134020856, "107": -0.06614116374020255, "108": 0.10089692941438318, "109": 0.07197333597721495, "110": 0.2101260342725325, "111": -0.15830750415538822, "112": -0.2104717101045702, "113": -0.2909957814075456, "114": -0.3094239178673529, "115": -0.5574688003651886, "116": 0.11116441774425403, "117": 0.3847699674949684, "118": 0.48343479099153164, "119": -0.32934822396207497, "120": 0.016367583777573674, "121": -0.23808857259958935, "122": 0.21250457507514184, "123": -0.28858122969356326, "124": 0.3246722472922302, "125": 0.09677569125883387, "126": 0.20035726029500717, "127": -0.21184373217239555, "128": 0.07540109773397888, "129": -0.39716154953632, "130": 0.051240413953238154, "131": -0.15584132949069104, "132": 0.10383844152628331, "133": 0.21726341370149152, "134": 0.055677449202513135, "135": -0.18841418558626039, "136": 0.042440561491053505, "137": -0.25795119937937505, "138": -0.1999068348609016, "139": -0.1837282313476221, "140": -0.013013181866796852, "141": -0.02256071361418415, "142": -0.07055799351008557, "143": -0.3712046302876086, "144": 0.007541102943928527, "145": -0.22450575047134286, "146": -0.12655303283086167, "147": -0.34268017986268473, "148": 0.10452867414374614, "149": 0.1691842808929451, "150": 0.17722376279526056, "151": -0.14545308211459707, "152": -0.06645510565944236, "153": -0.3848271523176842, "154": -0.12035818079692209, "155": -0.3149516898259348, "156": 0.2737291243239916, "157": 0.17925147511116876, "158": 0.16143120023581572, "159": -0.2950287211226957, "160": 0.4593046402067419, "161": 0.011934710642665141, "162": 0.3200674642156516, "163": 0.2556417759939317, "164": 0.061636067122233754, "165": -0.11694627497593767, "166": -0.1844470390485585, "167": 0.03855365850019187, "168": 0.4727903424231212, "169": 0.20266019805922542, "170": 0.23316994073818803, "171": 0.2927186649065911, "172": 0.08749147754680138, "173": -0.04762910058002069, "174": -0.34157269967918846, "175": 0.20781439462630152, "176": 0.28764966954444576, "177": -0.008927886961138264, "178": 0.1931601812132155, "179": 0.10374961851438814, "180": -0.10625857537259613, "181": -0.1772178662766959, "182": -0.12842066828209042, "183": -0.014878747864565478, "184": 0.42083456260960983, "185": -0.1074170839243542, "186": 0.32170378536344735, "187": 0.03635575535116548, "188": 0.05485189950610752, "189": -0.12727579522427757, "190": -0.20937463198736128, "191": -0.0486397213457249, "192": 0.22991438156397395, "193": 0.04193659259227906, "194": 0.2202916836119321, "195": 0.03302593137348669, "196": 0.027397264957717583, "197": 0.13658831026750465, "198": -0.173478092621364, "199": -0.034461587590699574}}, {"sx": 5, "sy": 5, "depth": 8, "w": {"0": 0.05943541845597533, "1": -0.11848438177243202, "2": 0.03897268037049718, "3": -0.08910085188642673, "4": 0.22913870371830633, "5": 0.23838159301470424, "6": 0.17066403985955775, "7": -0.04934551374594695, "8": 0.011011241037373476, "9": -0.1906449382783668, "10": -0.13964422029697393, "11": -0.19901074631947407, "12": 0.06613892644141955, "13": 0.10912942572366878, "14": 0.07911445327303161, "15": -0.18309286829259547, "16": -0.0825077924828108, "17": -0.2047832084565106, "18": -0.17234316679595701, "19": -0.2807373984498571, "20": 0.0628480509052113, "21": 0.1387894783105344, "22": 0.08148019367628961, "23": -0.28913998665883245, "24": 0.026954553835463926, "25": -0.08649044592796576, "26": -0.08765937202061451, "27": -0.3624322137414116, "28": 0.11920320093491661, "29": 0.17167931939490824, "30": 0.09062027453329945, "31": -0.12775020883472007, "32": 0.13007747837724348, "33": 0.029281680587584007, "34": -0.023817522197937983, "35": 0.11876490026521425, "36": 0.2517148467086724, "37": 0.1326403811923009, "38": -0.04292280149932005, "39": 0.07576845627199563, "40": 0.049808059841284606, "41": -0.026683131311913223, "42": -0.018660192052683107, "43": -0.031037640125537284, "44": 0.053923103901124037, "45": -0.0689485195618371, "46": 0.06953172830279444, "47": -0.01896614716255726, "48": 0.04485035036416074, "49": 0.007857363990250447, "50": -0.0907114266095534, "51": -0.24044520055307306, "52": -0.02011509346989092, "53": 0.17815221423447242, "54": 0.14096301191759308, "55": -0.05598309239453419, "56": -0.21222308664806294, "57": -0.2519077352010828, "58": -0.1910003516261746, "59": -0.5554775622205927, "60": 0.10654589212930642, "61": 0.20735152089919015, "62": 0.18175610684651813, "63": -0.23105834794047975, "64": -0.21987939206172682, "65": -0.12839098716796546, "66": -0.0190904498754121, "67": -0.12913778123659483, "68": 0.1851201374560066, "69": 0.10094157843657095, "70": 0.014731399837414831, "71": 0.07445130067207756, "72": -0.06592725719669368, "73": 0.32573581175080807, "74": 0.03349540349609203, "75": 0.22822668275753358, "76": -0.1345459346754075, "77": -0.3405152239102517, "78": -0.2842767691675733, "79": 0.07446384288905898, "80": -0.16375641385088832, "81": -0.1446873116206517, "82": -0.04754577264335592, "83": -0.02061596694161134, "84": 0.06751562119092637, "85": -0.01731147279120439, "86": -0.17400325584531037, "87": -0.09781055486369361, "88": -0.1335198531128798, "89": -0.14876856212184228, "90": -0.06960529713875872, "91": -0.1810008863218478, "92": 0.08093587683574908, "93": 0.01866319587923131, "94": -0.00465412950519109, "95": -0.11082388387457223, "96": -0.2524958975307425, "97": -0.20506409796259767, "98": -0.14053084729187446, "99": -0.42924359078154073, "100": 0.13070352064416552, "101": 0.1404854479005893, "102": 0.0634941702829112, "103": -0.28737776341815086, "104": -0.40127169868810375, "105": 0.05680413424999584, "106": -0.02878286501008343, "107": -0.08211679719831957, "108": 0.13526696319724077, "109": -0.19493036412346695, "110": -0.14285220504168158, "111": 0.06773091326283978, "112": -0.2007523602044842, "113": 0.21499499813188938, "114": -0.028410192412305045, "115": 0.22786816967761253, "116": -0.549070596185371, "117": -0.5996264388304573, "118": -0.6264965993981373, "119": 0.10698977583996579, "120": 0.03416556848669125, "121": -0.004006459832728299, "122": -0.050111695754513685, "123": -0.010449825117620375, "124": -0.07307255429659758, "125": 0.004923996918712377, "126": -0.04073615863044016, "127": -0.09644333867283321, "128": -0.027627063990468458, "129": -0.14250838909543015, "130": -0.08562305328615744, "131": -0.18121450881542028, "132": -0.06899395797586452, "133": 0.09255572501441818, "134": 0.20405224107859168, "135": -0.16176945497306533, "136": -0.22326258785289949, "137": 0.006605747831656902, "138": 0.0712264323657027, "139": -0.18630415438847692, "140": 0.04681832798581873, "141": 0.050461036070917134, "142": 0.11581925607780094, "143": -0.08957933629448947, "144": -0.2976879217328008, "145": 0.08163232356643778, "146": -0.054657888308139904, "147": -0.021365853354999294, "148": -0.17341741541297853, "149": -0.34099249906548357, "150": -0.44434259887665384, "151": 0.14576479676876639, "152": 0.25161560938800076, "153": 0.007887944597276549, "154": -0.19128910954741465, "155": 0.15739343059470923, "156": -0.5592852766325862, "157": -0.3579154367830536, "158": -0.48658004916377734, "159": 0.2910177862790068, "160": -0.010119216304727001, "161": 0.037869684536309636, "162": 0.03111449789384891, "163": 0.09963091480574954, "164": 0.018633276825379127, "165": -0.056124850045721396, "166": 0.054834776222232304, "167": 0.003993530191499953, "168": -0.0692741790090794, "169": -0.118810585780441, "170": 0.10790368263813982, "171": -0.05073591292938658, "172": 0.3675231500863894, "173": 0.04535099109759823, "174": 0.08466845348189905, "175": -0.10929128777328932, "176": -0.16410493633383225, "177": 0.05908411709226779, "178": 0.09071173779821835, "179": -0.028733816021602104, "180": -0.046542229735350306, "181": -0.097121563054033, "182": -0.09114998545231673, "183": 0.042219941061358415, "184": -0.07728426386114388, "185": 0.06806321264082121, "186": -0.147010226069384, "187": 0.09389259199007674, "188": -0.4812923833548545, "189": -0.3268219106174635, "190": -0.5341817529427256, "191": 0.1394024625459006, "192": 0.18207204638658986, "193": 0.2272806439589642, "194": -0.3506905475904626, "195": 0.3386570820637024, "196": -0.4522454593920513, "197": -0.23144372236087432, "198": -0.21973184431002818, "199": 0.10504231781593493}}, {"sx": 5, "sy": 5, "depth": 8, "w": {"0": 0.24104597585937032, "1": -0.12814499015624942, "2": 0.059408534751222535, "3": 0.09972870124093788, "4": 0.24601785791425917, "5": -0.072557239589169, "6": -0.036219235405625626, "7": 0.08861935980485879, "8": 0.3444663090238677, "9": -0.14792697902584626, "10": 0.021239404557220006, "11": 0.002620587944246605, "12": 0.06408150824647123, "13": -0.03815147672973766, "14": 0.053353415679955656, "15": -0.11570133014478985, "16": 0.531488445609019, "17": -0.19930422822190783, "18": 0.23083850562844588, "19": 0.030099049775388107, "20": -0.0410133695912211, "21": 0.054547970525711295, "22": -0.012063454364349146, "23": -0.24642371336397315, "24": 0.40402345851419763, "25": -0.28671566530019865, "26": 0.3121308122996436, "27": 0.0021914332198157845, "28": 0.21377906585886308, "29": 0.2213177984406945, "30": 0.16488615737524753, "31": -0.25239508731907545, "32": 0.05525577494833234, "33": -0.35061424233579697, "34": 0.0379517209755872, "35": -0.13350456047644566, "36": 0.11256174068919556, "37": 0.08123995859887236, "38": 0.019602672488580837, "39": -0.22287624163235084, "40": 0.25958516202266557, "41": 0.2638889924179984, "42": 0.24548420493737597, "43": 0.39015789276266927, "44": -0.25892063076079785, "45": -0.152425364761342, "46": -0.18379548434733187, "47": 0.14457947212247294, "48": 0.31962580673164354, "49": 0.2018313346400536, "50": 0.4454472506349111, "51": 0.400164960627916, "52": -0.14814605898313743, "53": -0.36951229254673806, "54": -0.33351291658146226, "55": 0.19862999206346185, "56": 0.330324903071578, "57": 0.04747549698496628, "58": 0.5889736329061398, "59": 0.22397953678199195, "60": -0.2900678933136008, "61": -0.44402607798563726, "62": -0.5908329333751973, "63": 0.2787691140812771, "64": 0.5728987850865361, "65": 0.17978425706562307, "66": 0.6479066334237471, "67": 0.24773783752384665, "68": -0.08083932057000918, "69": -0.17203915454633598, "70": -0.4529727241580732, "71": 0.2216190378946633, "72": 0.3138988080736956, "73": -0.01572622654018431, "74": 0.5585869192781795, "75": 0.10197686466850431, "76": -0.2252658734570484, "77": -0.031334999314386, "78": -0.21220426880045498, "79": 0.17831533560262852, "80": -0.36219243592613337, "81": -0.05713466176755275, "82": -0.21790468144392944, "83": -0.005157330248679527, "84": -0.21946981844822808, "85": -0.17182289729232497, "86": -0.0683685745354719, "87": 0.052975615402304735, "88": -0.41045823790828206, "89": -0.11319038854725506, "90": -0.07282015138904364, "91": 0.1788994453872756, "92": -0.3875667768134388, "93": -0.3385576653353756, "94": -0.10565795347901144, "95": 0.032704768635175734, "96": -0.39882727701295934, "97": 0.05963969709786469, "98": -0.334354241798349, "99": 0.16788561474480027, "100": -0.5906594530098883, "101": -0.4341906715544667, "102": -0.27962046064910484, "103": -0.11799219174988121, "104": -0.2343446142756855, "105": 0.08967587807673572, "106": 0.005916730378121917, "107": 0.2047139505079169, "108": -0.42014563422831114, "109": -0.3575127492851585, "110": -0.2955424056202478, "111": 0.1166544676843232, "112": -0.15353867643136337, "113": 0.13098386281085223, "114": 0.13434914900507766, "115": 0.18184464546337045, "116": -0.27828624419754033, "117": -0.3829558441189091, "118": -0.4804034236216768, "119": 0.10712643681166184, "120": 0.1217724841567839, "121": -0.3248602939869536, "122": 0.012077045746214715, "123": -0.3310116637219822, "124": 0.22619602449043516, "125": 0.14749405234490406, "126": 0.1921653547957978, "127": -0.29591677002132966, "128": 0.13121809656727237, "129": -0.2643933113401677, "130": 0.016882451032377007, "131": -0.26891784351436615, "132": 0.24240533015272053, "133": 0.16153267020354192, "134": 0.29688614757368476, "135": -0.2832986017555472, "136": -0.08926731683761337, "137": -0.3059579060060489, "138": 0.14244471550635432, "139": -0.20618776908943093, "140": 0.026021276028679846, "141": 0.011656894809355717, "142": 0.0803806679728866, "143": -0.3772334967968393, "144": -0.12947597344890804, "145": -0.20191228720702947, "146": 0.09526968062630134, "147": -0.14071859165890185, "148": 0.004083341939442899, "149": 0.03679258158784907, "150": 0.043754322395498285, "151": -0.12379875822052117, "152": -0.14132805597504983, "153": -0.1847919850617048, "154": -0.19742246509489167, "155": -0.048961531713295495, "156": 0.030217342697266763, "157": -0.11192912837469093, "158": -0.15365617266855064, "159": -0.07143788135904036, "160": 0.28469047193442953, "161": -0.13233275914400036, "162": 0.23798734010890088, "163": -0.1788261008239679, "164": 0.15687326447932773, "165": 0.160900041564744, "166": -0.022952389502685192, "167": -0.17517868285003718, "168": 0.14908281649670718, "169": -0.26322127335544854, "170": 0.21845726937445425, "171": 0.06083676859203482, "172": 0.03029152065305179, "173": 0.03844361289541144, "174": -0.10989067108812281, "175": -0.11057341723246465, "176": -0.05438634692530596, "177": -0.22087007098451242, "178": 0.09005553579522615, "179": -0.08055209943705582, "180": -0.036754037615255856, "181": -0.10584431782416599, "182": -0.0464258807345155, "183": -0.23863611463670423, "184": -0.12855047770138112, "185": -0.13621259476714404, "186": 0.008294191493421157, "187": -0.04296766859432054, "188": 0.132100756785945, "189": 0.1618629678756638, "190": -0.04572969238537957, "191": -0.06067696360451443, "192": -0.057770457640466115, "193": -0.01514185715810935, "194": -0.07213131012616401, "195": -0.07127456784423766, "196": 0.013989299128307882, "197": -0.11537523954975432, "198": -0.03556154809191569, "199": -0.0040500089657175345}}, {"sx": 5, "sy": 5, "depth": 8, "w": {"0": 0.2018001172914047, "1": -0.060856702248955424, "2": 0.11348588456096062, "3": 0.0740544292196064, "4": 0.03596967411179888, "5": -0.11034066072865716, "6": -0.1101104315048344, "7": 0.03381911606317497, "8": 0.42607770581071697, "9": 0.015407563323353418, "10": 0.1828521669465294, "11": 0.19732895462200759, "12": 0.11114295674075726, "13": -0.1640966424180607, "14": -0.07978733066984059, "15": 0.1599543791825808, "16": 0.3423574996339645, "17": -0.22265836713502937, "18": 0.17004180055109827, "19": 0.19298388688960497, "20": -0.0012579773256278899, "21": -0.04311058692967632, "22": -0.11627615320103382, "23": -0.10782654911445123, "24": 0.4112820031415848, "25": -0.011836112942013435, "26": 0.2561649878440986, "27": 0.011266098252422009, "28": 0.1679768039136436, "29": -0.04117737505022204, "30": -0.0020505151791410763, "31": -0.1283165822552584, "32": 0.4027350173180946, "33": -0.05045195790226379, "34": 0.4498049722669579, "35": -0.08322620025142048, "36": 0.15263043175189378, "37": -0.18492060519376569, "38": -0.3148853557820391, "39": 0.12600506432545758, "40": 0.3750812821136681, "41": 0.24568499725098455, "42": 0.19373839769857348, "43": 0.2810556309674127, "44": -0.3958092204814378, "45": -0.5954062643566178, "46": -0.43958256549294633, "47": 0.3547323239810551, "48": 0.1549362725507916, "49": 0.31673570780669674, "50": 0.2959452614842377, "51": 0.405361097639774, "52": -0.18079204651894915, "53": -0.26470097175841967, "54": -0.397983906620404, "55": 0.3688567846742237, "56": 0.08570730183676632, "57": 0.23145995240171952, "58": 0.30010899808652264, "59": 0.2601938710769552, "60": -0.32045563843889385, "61": -0.46082966612987136, "62": -0.6332262981462148, "63": 0.3502376363598341, "64": 0.3451660249746188, "65": 0.22385643070912906, "66": 0.39001836307647686, "67": 0.29067096668457737, "68": -0.16917173055234216, "69": -0.317547156571849, "70": -0.47381038816685483, "71": 0.2767503605769897, "72": 0.00190866776175482, "73": 0.19890064969239754, "74": 0.2652511903013844, "75": 0.3724785710219599, "76": -0.5834194592468109, "77": -0.6561893622200964, "78": -0.63767302014925, "79": 0.3343266725564193, "80": -0.4351719444841986, "81": -0.04103213382047591, "82": -0.3072878119765028, "83": 0.02368898069462206, "84": -0.32447458602241785, "85": -0.33864701630657285, "86": -0.10790847657350805, "87": -0.19658574980117377, "88": -0.41601307844112767, "89": 0.030718894882721254, "90": -0.22763846443611993, "91": 0.10031779989651236, "92": -0.2778618774518023, "93": -0.25169805480480006, "94": 0.022131828256661795, "95": 0.005393843494609627, "96": -0.4659786457324113, "97": -0.04300367390811731, "98": -0.35099186501034857, "99": 0.0623984809086536, "100": -0.6131477197221035, "101": -0.5013426012762087, "102": -0.18181244722860998, "103": -0.08285082765566848, "104": -0.4772090083869091, "105": -0.06948372838658999, "106": -0.23479921711991966, "107": 0.012275454113229407, "108": -0.211225533023814, "109": -0.26474355829319746, "110": -0.019683832859409674, "111": -0.06579524355805182, "112": -0.5326423609263163, "113": 0.05924193126050914, "114": -0.3753741091652567, "115": 0.03238058374027962, "116": -0.47003591574694426, "117": -0.38985721354018354, "118": -0.2798198395843847, "119": -0.09337447325668552, "120": -0.16044244002308983, "121": -0.36062528125787197, "122": -0.20665429837553698, "123": -0.2689481839096912, "124": 0.17037930156261968, "125": 0.23602544070927656, "126": 0.27078522664558763, "127": -0.42469699042407383, "128": 0.10393229964142112, "129": -0.2233203217773498, "130": 0.060311313465247346, "131": -0.3018207911710899, "132": 0.13382677283022615, "133": 0.16917284492617216, "134": 0.24911695402224207, "135": -0.22704622529913093, "136": -0.10691925063312333, "137": -0.4100671661934017, "138": 0.04140145973103976, "139": -0.33669717941352484, "140": 0.2632077026465551, "141": 0.06350173796120824, "142": 0.24625454109267586, "143": -0.21819352421926547, "144": 0.03629872454717666, "145": -0.26060960926302174, "146": 0.1167260923466132, "147": -0.24592687116384326, "148": 0.19386707583466847, "149": 0.3342182010895055, "150": 0.2900914745138688, "151": -0.2124082163137721, "152": -0.1534159628809101, "153": -0.36345136256478555, "154": -0.17616907214881872, "155": -0.24014596296238827, "156": 0.09282100317978952, "157": 0.014524878427158943, "158": 0.068575003402756, "159": -0.3055055339428286, "160": -0.06240968442072467, "161": -0.25701707603368834, "162": -0.02026854727960775, "163": -0.18512453810256047, "164": 0.15285955671281834, "165": 0.13654274991200135, "166": 0.027754335962918347, "167": -0.16665480100776323, "168": 0.12500075682411435, "169": -0.11079936007355726, "170": 0.11890468879367974, "171": -0.07880133713973701, "172": 0.23649006901983222, "173": 0.17033940969419156, "174": 0.01967768356918618, "175": 0.03187778134020694, "176": -0.1211476685840889, "177": -0.25431898748571025, "178": 0.07548207197354047, "179": -0.2189471513434847, "180": 0.1604298284837243, "181": 0.2607845134650567, "182": -0.03669415932684737, "183": -0.09531949724612385, "184": -0.0912244959783581, "185": -0.15029658483103484, "186": 0.004931236631960128, "187": -0.21802813187469133, "188": 0.194941574840754, "189": 0.28164716724109157, "190": 0.12903874211256522, "191": -0.14256376566299125, "192": -0.049302683922963254, "193": -0.14906199187672703, "194": -0.05067405028040733, "195": -0.23772294364767815, "196": -0.0067422262958836835, "197": 0.1783557922372571, "198": -0.044110604117438154, "199": -0.13243946626090036}}, {"sx": 5, "sy": 5, "depth": 8, "w": {"0": 0.02693550777530461, "1": 0.1488919295153207, "2": 0.18339116882899142, "3": 0.2079309701723964, "4": -0.12083213056376337, "5": -0.21413731759295918, "6": -0.11658639613549898, "7": -0.04668505223806475, "8": -0.06459372588618807, "9": 0.11563656457393133, "10": -0.18738174669022142, "11": 0.0385549165665084, "12": -0.04074682566639053, "13": 0.060871350464190864, "14": -0.07569080603595282, "15": 0.012444306029466702, "16": -0.44033583827047607, "17": 0.029212704549462933, "18": -0.20875123781426574, "19": -0.14787519016787437, "20": -0.008747925812022814, "21": -0.05822678727615456, "22": -0.07890093026621041, "23": -0.06589648982270908, "24": -0.2731748624469345, "25": 0.1896116625633128, "26": -0.17603765014222206, "27": 0.026497247237764626, "28": -0.12228454216219106, "29": -0.3313988077218887, "30": -0.28561675799325686, "31": 0.10544516850439835, "32": -0.0011589181894614536, "33": 0.26286644761186206, "34": 0.02052323112631734, "35": 0.41485444498174573, "36": -0.5019605535558691, "37": -0.5994149275774437, "38": -0.7277633622855839, "39": 0.15162665690342247, "40": -0.03843339761058365, "41": 0.19205797669323715, "42": -0.0030610645625252166, "43": 0.06808810352702566, "44": -0.01499561562100727, "45": 0.04576335820879115, "46": -0.05207596057679871, "47": 0.08696701942310814, "48": -0.09454974319212786, "49": -0.0816783879126174, "50": -0.05546781590293073, "51": -0.04489743491510728, "52": 0.20163625281494402, "53": 0.051789391636447864, "54": 0.17597604926089733, "55": -0.07412652184068909, "56": -0.3588644653014899, "57": -0.07651142323604047, "58": -0.2701857399152923, "59": -0.2014590323394352, "60": 0.24323483957491077, "61": 0.09568434650648647, "62": 0.2240860682814702, "63": -0.3301826841404447, "64": -0.359858678042007, "65": 0.20171300637046266, "66": -0.15575891226329164, "67": 0.07948871411348739, "68": -0.2539459760113717, "69": -0.2781185821812131, "70": -0.11590385992442714, "71": 0.10684872251897871, "72": 0.13728044219862415, "73": 0.21677985577633344, "74": 0.021917772240025425, "75": 0.5120483159724828, "76": -0.5078696111851294, "77": -0.49604360717718293, "78": -0.39207138075301057, "79": 0.29766907077139765, "80": -0.029061047752794646, "81": -0.04175026162686841, "82": -0.0865833063690558, "83": -0.07151784182820244, "84": -0.18524998217473976, "85": -0.10881012549858822, "86": 0.09137124054474684, "87": 0.018717219540907173, "88": -0.34176029541096076, "89": -0.2784313519535068, "90": -0.28869925094101045, "91": -0.20155259662212133, "92": 0.13949486175346854, "93": 0.13313674452917637, "94": 0.15382712213204175, "95": -0.44138095164105534, "96": -0.3735111367291185, "97": -0.05726968722254164, "98": -0.22499383978955417, "99": -0.4012013538443065, "100": 0.040929382510192486, "101": 0.01799449096768222, "102": 0.032750475574065074, "103": -0.1725808593668186, "104": -0.27903926731703177, "105": 0.24324667727415444, "106": -0.19495378076285294, "107": 0.01601804590724764, "108": -0.3793137181473192, "109": -0.45634964091949404, "110": -0.3619040822424437, "111": 0.13352227117240206, "112": 0.17966393816788762, "113": 0.1748514371911797, "114": -0.10154470292501015, "115": 0.3624999364437583, "116": -0.5573673709743334, "117": -0.4444980591262462, "118": -0.5316473372879396, "119": 0.16734460695468412, "120": -0.1979012392876737, "121": -0.10263216265280097, "122": -0.05473711961059685, "123": -0.02516381629364924, "124": -0.13370872684750698, "125": 0.11271773708073082, "126": 0.14721583506507208, "127": -0.05608693089142233, "128": -0.09686420203172912, "129": -0.25459112840627235, "130": -0.18198064288875448, "131": -0.3455287763456547, "132": 0.2173588622490177, "133": 0.24693668407280975, "134": 0.29481390742050856, "135": -0.28388200854058926, "136": -0.32921649152756594, "137": 0.02583895840232591, "138": -0.07099402030939207, "139": -0.24527805092431174, "140": 0.2676832536576361, "141": -0.05276605065390389, "142": 0.039422611856267754, "143": 0.003921967391618391, "144": 0.056300755041133486, "145": 0.2483382131900952, "146": -0.04033942648551915, "147": 0.26993362248082364, "148": -0.29014884184382916, "149": -0.26716330468950356, "150": -0.4239569672321489, "151": 0.32452346661173287, "152": 0.19438525611449933, "153": 0.2799136827626158, "154": -0.17088071185935247, "155": 0.2066482540113901, "156": -0.5559808287312971, "157": -0.28123017468739286, "158": -0.3831121079844078, "159": 0.2325472894266295, "160": 0.12277658989175615, "161": -0.045728480344033005, "162": 0.22143967951401186, "163": 0.0368668716218756, "164": 0.06804572443154144, "165": 0.06608457754141916, "166": 0.013314578921241002, "167": -0.04299051853589263, "168": 0.1714338576195602, "169": -0.0834791330533892, "170": 0.08599233132366438, "171": -0.2832415735105437, "172": 0.1386709148355557, "173": 0.266310315434904, "174": 0.4340280154633706, "175": -0.17190921761226574, "176": -0.25316648582064677, "177": -0.016636158520466727, "178": -0.00026246125922685035, "179": -0.06947515554668397, "180": 0.28586278390154507, "181": -0.1391895643652043, "182": 0.010900746105001021, "183": -0.10201116374399076, "184": 0.2223572441911202, "185": 0.20689756947126006, "186": -0.05603641873120455, "187": 0.10598954683451452, "188": -0.24631911026682962, "189": -0.2469877144281936, "190": -0.41264572912688263, "191": 0.2209806008234636, "192": 0.18605065018944159, "193": 0.22620039352066693, "194": -0.08482952882150728, "195": 0.1629524158026158, "196": -0.3802665031827786, "197": 0.053674940839364416, "198": -0.237860788856321, "199": 0.054200858380472776}}, {"sx": 5, "sy": 5, "depth": 8, "w": {"0": -0.19726552495822264, "1": -0.09427379313537346, "2": 0.04180492689137858, "3": 0.03310202532045865, "4": -0.30164680033903113, "5": -0.3358260422523624, "6": -0.1958555819649983, "7": -0.03599531051230084, "8": -0.13546968208491172, "9": -0.08290173321079135, "10": -0.06782513385192461, "11": -0.1184665351383721, "12": -0.2914591316864529, "13": -0.35759850812431104, "14": -0.32746636547872154, "15": -0.08624257246364277, "16": -0.2763363077063127, "17": -0.0013466901042932617, "18": -0.16790176955131642, "19": -0.09464965828498574, "20": -0.3178780965649477, "21": -0.4097363466772137, "22": -0.36464961237818827, "23": 0.00981851348011362, "24": -0.11214655545237014, "25": 0.17031301280434022, "26": 0.06817967742719504, "27": -0.12351799424722276, "28": -0.25403353357361325, "29": -0.4258183836765195, "30": -0.32109830006026974, "31": 0.09297266420273782, "32": 0.14277239809245493, "33": 0.3319070915312315, "34": 0.02447547565596118, "35": 0.4078582097733438, "36": -0.3477784051795839, "37": -0.3772633761638118, "38": -0.42719546053245466, "39": 0.234538299635069, "40": -0.08709759097042041, "41": -0.03477119449649617, "42": -0.0233881361722266, "43": -0.09368577001716522, "44": -0.21860502439475046, "45": -0.1150528354223441, "46": -0.17492937078495394, "47": -0.2205970190560951, "48": -0.2162286793169155, "49": -0.1439763101495198, "50": -0.1860383154642068, "51": -0.016129877943936943, "52": -0.15758285731649058, "53": -0.22033773284466052, "54": -0.021334741462226522, "55": -0.18405341585039156, "56": -0.46694442078732135, "57": -0.2293851612225707, "58": -0.4667799368448211, "59": -0.32037719288792327, "60": -0.23082176847953187, "61": -0.07554780870603943, "62": -0.13641602361295407, "63": -0.1422363300780853, "64": -0.24481424881734612, "65": 0.09287144889764498, "66": -0.08605698881485448, "67": 0.042883912840757155, "68": -0.21920387963109364, "69": -0.5615640244408531, "70": -0.48085265532246413, "71": 0.16588934141746564, "72": 0.10265885810413905, "73": 0.1901769734705557, "74": 0.008487431279485303, "75": 0.3147966664655212, "76": -0.5110969248965064, "77": -0.602874433457462, "78": -0.8068711360178462, "79": 0.2218470601546571, "80": -0.04882056480754782, "81": -0.21894462507124213, "82": -0.25782740117458147, "83": -0.15251500145701222, "84": 0.01311188067174614, "85": 0.07047642927296979, "86": 0.09341990546953627, "87": -0.21537311260782552, "88": -0.05424846186964689, "89": -0.2598942537520055, "90": -0.14781803419844014, "91": -0.3182856217550254, "92": 0.11964865353020024, "93": 0.3126655617772487, "94": 0.30785720824294815, "95": -0.24805924687658157, "96": -0.34895599672662275, "97": -0.060648035219727364, "98": -0.05251346838407265, "99": -0.2835509549823959, "100": 0.19920075054247227, "101": -0.1144920229592357, "102": 0.056791106441089444, "103": -0.11531678612972665, "104": -0.15169708309507873, "105": 0.26576328812657884, "106": 0.026850565226050303, "107": 0.30587280199492495, "108": -0.16273973845911419, "109": -0.4649302873834994, "110": -0.4051020418807644, "111": 0.29897146065996444, "112": 0.3895921077545669, "113": 0.30647947708713746, "114": -0.0813206582060862, "115": 0.39463200971695184, "116": -0.4217337449636173, "117": -0.37589162165044465, "118": -0.4992531179924828, "119": 0.3265478103667416, "120": -0.044816874418549264, "121": -0.16719705213068428, "122": 0.04670497668838629, "123": -0.09865730350644848, "124": 0.19092764479356725, "125": 0.08952061827541544, "126": 0.15362811906327214, "127": -0.028300096419441645, "128": 0.2223078740632324, "129": -0.1000285315089899, "130": 0.2421062016110582, "131": -0.07272336024751345, "132": 0.2933146342639379, "133": 0.11255390006962546, "134": 0.10469405809952745, "135": 0.018143290834762956, "136": 0.03148886193633088, "137": 0.19618517278139738, "138": 0.10698933379238494, "139": 0.06759041233661635, "140": 0.11779346639054691, "141": -0.07669941210538739, "142": -0.015249382151954576, "143": 0.1603780618950048, "144": 0.025503498975585653, "145": 0.42404664876497195, "146": -0.00607193535167969, "147": 0.3844837094057748, "148": -0.478490989594964, "149": -0.46937739660172734, "150": -0.44952383268619595, "151": 0.44887426351953263, "152": 0.028675230708582206, "153": 0.3686863900702857, "154": -0.10289307800115426, "155": 0.48209601594027857, "156": -0.4170427777381677, "157": -0.29433311309530696, "158": -0.11548200227026317, "159": 0.20459632064491393, "160": 0.003315501819759547, "161": 0.04205501257246051, "162": 0.008649533730671621, "163": 0.01060763011087433, "164": 0.1256676400056193, "165": -0.04088322056909503, "166": -0.03938129276711707, "167": 0.19582051796065003, "168": -0.013888354551814683, "169": 0.09370065962226402, "170": 0.23741582108613257, "171": 0.11097402784805793, "172": -0.04416937343524899, "173": 0.02407275772809462, "174": -0.0958470667326428, "175": 0.06003224664531199, "176": -0.1195977056260185, "177": 0.09967331811310227, "178": -0.10744557935817514, "179": 0.049354141138670385, "180": -0.22413123109399735, "181": -0.37771671479204655, "182": -0.23046985721445007, "183": 0.0710558248733734, "184": 0.015797586362692725, "185": 0.11201945882217317, "186": -0.015659599404735155, "187": 0.23695340928708608, "188": -0.33709845316123155, "189": -0.03257611778195342, "190": -0.1978045583293804, "191": 0.20325148507266785, "192": 0.03309606583043842, "193": 0.17105853617157835, "194": -0.1162650139981231, "195": 0.18127443679090674, "196": -0.2124645952433378, "197": 0.028145790705961984, "198": 0.11128799724696897, "199": 0.16209727896407633}}, {"sx": 5, "sy": 5, "depth": 8, "w": {"0": 0.018248957667056337, "1": -0.016707693493573206, "2": 0.08938871753112652, "3": -0.08899636558365562, "4": 0.03177903997706304, "5": -0.16827266670808047, "6": -0.08745711020962012, "7": 0.07376542511811275, "8": 0.03568725984195906, "9": 0.22692591280462535, "10": 0.0803782993593114, "11": 0.1242923257122309, "12": -0.16931683676316184, "13": -0.22959181088716404, "14": -0.20774995779930536, "15": 0.19327619846360708, "16": 0.1087377487094945, "17": 0.2150146370895879, "18": 0.025116636053025544, "19": 0.17861943060904245, "20": -0.316159832413068, "21": -0.25230901387388915, "22": -0.29608667380713627, "23": 0.04726485678883653, "24": 0.364093613021998, "25": 0.13156839092096095, "26": 0.1838436007237863, "27": 0.1998584406422984, "28": -0.06755295162574437, "29": -0.13760002430895182, "30": -0.20812120671253379, "31": 0.18184102764387758, "32": 0.1921383994984994, "33": 0.26546428543121403, "34": 0.5099945442265873, "35": 0.23154133943293262, "36": 0.030776063523248902, "37": -0.3959449739237965, "38": -0.2567293837568349, "39": 0.3082262643570375, "40": -0.24530535205580895, "41": -0.17017806244282568, "42": -0.17418348774847395, "43": -0.13747653942628843, "44": -0.11560573454848602, "45": -0.015117627005887356, "46": 0.0317136417590239, "47": -0.10710515735259558, "48": -0.28503920132077026, "49": -0.016134479190857427, "50": -0.23239575549953934, "51": 0.05008929615921156, "52": -0.17356959506173056, "53": -0.09873490275312091, "54": 0.0697213336082379, "55": -0.14198456268588097, "56": -0.3289631830136862, "57": -0.06018022667238487, "58": -0.12239942481964788, "59": 0.05678371147489121, "60": -0.2936931480812744, "61": -0.15684089035892862, "62": -0.1454028125519513, "63": 0.02289799770212802, "64": -0.12877251658328778, "65": 0.02132108685832758, "66": 0.15955462798726153, "67": 0.10701744923772843, "68": -0.19142237375409593, "69": -0.2130337392312745, "70": -0.09426161560094563, "71": 0.06678849463926628, "72": -0.3319951636596004, "73": 0.29302065856162857, "74": 0.15135539507235, "75": 0.32351672689581407, "76": -0.44778861433006373, "77": -0.49371469039069915, "78": -0.5432514044011848, "79": 0.22233041317287278, "80": -0.10945031053340047, "81": -0.3546519080590615, "82": -0.11139889360275282, "83": -0.24544864915517206, "84": 0.31224285269951163, "85": 0.16358606720054406, "86": 0.2317809163372844, "87": -0.35169816303672763, "88": -0.13681155566004446, "89": -0.469173460965458, "90": -0.29037897552048686, "91": -0.43328878095280365, "92": 0.05598298668782648, "93": 0.21011817310937297, "94": 0.36758142113762243, "95": -0.4936850479475184, "96": -0.29497880205589466, "97": -0.4024068287421466, "98": -0.40448420296468424, "99": -0.5547598349211534, "100": 0.019434970826694015, "101": 0.19955455505561714, "102": 0.28975342412071237, "103": -0.6077727625287258, "104": -0.4387168570203618, "105": -0.37659401225615624, "106": -0.347669886374012, "107": -0.39627574083603007, "108": 0.0575456241761795, "109": 0.18963677986156793, "110": 0.26217770999941276, "111": -0.38430489329787426, "112": -0.40732240179296714, "113": -0.13602478482579214, "114": -0.2809736862921061, "115": -0.3443010721356379, "116": -0.04167621743921381, "117": -0.07554798442892097, "118": 0.09888353506175547, "119": -0.32240595195553073, "120": 0.19411918147537352, "121": -0.2444283871820495, "122": 0.11914665872383258, "123": -0.2466049506868432, "124": 0.23048445474513385, "125": 0.21206106292511825, "126": 0.19255895785221994, "127": -0.2522005416127883, "128": 0.25394394489274336, "129": -0.3113992183556257, "130": 0.31283181091656814, "131": -0.31116836286624777, "132": 0.2649656935765282, "133": 0.362011688074333, "134": 0.09203029771233998, "135": -0.18060533400717457, "136": 0.2809942410026274, "137": -0.4169007382761303, "138": 0.17847002974742257, "139": -0.28519333816467585, "140": 0.1786813761864487, "141": 0.2238521791438894, "142": 0.045235401765945635, "143": -0.30689431435037945, "144": 0.27036200101158997, "145": -0.3794601226951253, "146": 0.2550723989233539, "147": -0.42756886289932866, "148": 0.31479584912581626, "149": 0.2613230525653702, "150": 0.23670583927397643, "151": -0.29753390862469253, "152": 0.018950360703124964, "153": -0.3912065910654832, "154": 0.17518416483108135, "155": -0.26934848820918433, "156": 0.3103737885910302, "157": 0.03215167671350319, "158": 0.1986460114235926, "159": -0.28632395697294954, "160": 0.2556177590464892, "161": 0.09483754255259742, "162": 0.22119625690067285, "163": -0.10208577754352409, "164": 0.11718137064104775, "165": -0.04922885392383959, "166": -0.026567199382616008, "167": 0.1450315485589142, "168": 0.41255312980426007, "169": 0.050127658165599734, "170": 0.507615493319165, "171": 0.1954487470745427, "172": 0.1769628184078131, "173": -0.11772307649973027, "174": -0.07615755740787881, "175": 0.2585812234639394, "176": 0.3910984338341747, "177": 0.01600030194447078, "178": 0.4954085838040517, "179": 0.28014440287991454, "180": 0.08614967555494926, "181": -0.10040323236670726, "182": -0.17172490246263036, "183": 0.15931573305148367, "184": 0.3577373060077662, "185": 0.14923226781079837, "186": 0.5565097763576609, "187": 0.2819580549732492, "188": -0.004112659341809195, "189": -0.06575632580515364, "190": -0.25076916680879513, "191": 0.19945375864809778, "192": 0.3038374775118777, "193": -0.10521454556560142, "194": 0.35316801929620256, "195": -0.04368395845999538, "196": -0.033433081973506876, "197": -0.10224781151251812, "198": -0.20146081963318282, "199": -0.01283819546386753}}, {"sx": 5, "sy": 5, "depth": 8, "w": {"0": -0.1013162043863957, "1": -0.028775129575586353, "2": 0.0883504667307448, "3": -0.01981892118174041, "4": 0.15410605141766248, "5": 0.05270572950871986, "6": 0.02232572054107373, "7": 0.11277812796502594, "8": -0.09048064054342643, "9": 0.01568065602958809, "10": -0.026674964834991217, "11": 0.0022151416549493724, "12": -0.10101361186788305, "13": -0.05360320296548917, "14": -0.0314591762782106, "15": -0.01358958915560538, "16": -0.04629525081863148, "17": 0.02862027951038898, "18": -0.12071887448329971, "19": 0.0034911905179526885, "20": -0.06997171377974723, "21": -0.06371506226099613, "22": 0.04843537423349965, "23": -0.014440152803638008, "24": 0.014175500108578596, "25": -0.1774607093314185, "26": -0.10324321946031233, "27": -0.21441849346295488, "28": 0.18659269839084605, "29": 0.09438497553792244, "30": 0.20303445852645394, "31": -0.08250280165095861, "32": -0.18386318687670974, "33": -0.07137393623390982, "34": -0.2237968401791533, "35": -0.31351873957166976, "36": 0.1471729550516896, "37": 0.3417410118485575, "38": 0.23283040915779363, "39": -0.33793649689821775, "40": -0.2436978421919389, "41": 0.10897823314828557, "42": 0.1192196433767827, "43": -0.09887869523746212, "44": 0.13547945618785856, "45": -0.06938286833463485, "46": -0.09462908609914952, "47": 0.07637076097625012, "48": -0.11336449775984127, "49": -0.015274869718568644, "50": -0.14829390632240536, "51": 0.07515727315298164, "52": -0.12577560541908292, "53": -0.10626438899880308, "54": -0.12113501252857464, "55": 0.08144032306437365, "56": 0.03454302335709482, "57": -0.05078250759696056, "58": -0.07784375968063868, "59": -0.05589002552941228, "60": -0.12131980923849175, "61": 0.061727896096658796, "62": -0.0010805507119496117, "63": -0.011613527176674134, "64": -0.16015451041496995, "65": -0.0989118827472987, "66": -0.15874881181555753, "67": -0.19329266632229933, "68": 0.27853141844450324, "69": 0.04935490923067288, "70": 0.07748493258262208, "71": -0.2237347610126764, "72": -0.1148485811811897, "73": -0.11550183281766298, "74": -0.10820261830722398, "75": -0.31916941132582205, "76": 0.1735608494033225, "77": 0.2541371302446828, "78": 0.004138483823154725, "79": -0.17341370271025394, "80": -0.04634483968721348, "81": 0.008528639983183872, "82": -0.045877623684050434, "83": -0.14209087276698915, "84": 0.0005144117103189417, "85": -0.11869349938278734, "86": -0.05719120274943186, "87": -0.03918812486247762, "88": -0.007776740262915066, "89": -0.04124161748992326, "90": -0.08967454038451293, "91": 0.01818555784751142, "92": -0.1086970793529647, "93": -0.03389947114860125, "94": 0.02817384845270413, "95": -0.1263417951773202, "96": -0.07415522393018516, "97": -0.1116213504023156, "98": -0.11187858283851125, "99": -0.03868410451080849, "100": -0.03140910851057235, "101": 0.0558748106324068, "102": 0.22422348962073277, "103": -0.07701444742801225, "104": -0.09741288759704064, "105": -0.04093468472295686, "106": -0.04655902293688931, "107": -0.10011547608072784, "108": 0.06628284147185717, "109": 0.15697427186628066, "110": 0.05879331314162875, "111": -0.14085694509530322, "112": 0.03821485459146624, "113": -0.14255378306545596, "114": -0.0542895970925238, "115": -0.34071958687229553, "116": 0.08388736396522933, "117": 0.06352890060090693, "118": 0.09414764487933704, "119": -0.03694459162241119, "120": -0.07685710858496121, "121": -0.11516826951520717, "122": 0.013750430650527804, "123": -0.19475849040408238, "124": 0.04674907343413585, "125": -0.05284758995752285, "126": -0.03254052001601317, "127": -0.131988916192737, "128": 0.028051911544331613, "129": -0.11845145092304012, "130": -0.037778578723550386, "131": -0.13033009933160966, "132": 0.003629942336477992, "133": -0.07443319942535578, "134": -0.14602815212375475, "135": -0.029215061219379775, "136": -0.03618468817219618, "137": -0.05376447800037324, "138": -0.1412802116854451, "139": -0.09696467303483983, "140": -0.13079200043145334, "141": -0.1557174611813444, "142": -0.1372056698142149, "143": -0.0628657476647538, "144": 0.046419652573843034, "145": 0.00015814896318236432, "146": -0.1844251421845986, "147": -0.20435028119088638, "148": -0.08880803037258023, "149": -0.10596707561675275, "150": -0.16821909055384196, "151": -0.1117358758716409, "152": -0.06709601227166906, "153": -0.1962795732109443, "154": -0.17284861454143094, "155": -0.18711018171354202, "156": -0.20926744192228056, "157": -0.0688772357665973, "158": -0.05861598530266323, "159": -0.1771310016609596, "160": -0.025457652962210555, "161": -0.04930341126049798, "162": -0.0759513460081012, "163": -0.12705348116690154, "164": -0.046725526933021955, "165": -0.0001511641393175953, "166": 0.021953922838408368, "167": -0.1508473351224184, "168": -0.0754594604164869, "169": -0.13178293818990774, "170": -0.09544783708294764, "171": -0.07505163842507492, "172": 0.06175196486518465, "173": -0.12558699594364367, "174": -0.02970502491417508, "175": -0.12532889392910973, "176": -0.16560249216848166, "177": -0.17261081543343773, "178": -0.11534127815407844, "179": -0.08088757188952313, "180": -0.11171681903854618, "181": -0.07567143100209468, "182": -0.06207407899312126, "183": -0.16209394680056488, "184": -0.042084873762681496, "185": -0.03515115580344306, "186": -0.09604262645323827, "187": -0.05662282589568462, "188": -0.08519399106605693, "189": 0.006290336535833294, "190": 0.0012694273898582623, "191": -0.06849560360348377, "192": -0.13537317332529517, "193": -0.17119322546612717, "194": -0.13468531454651747, "195": -0.1732291445696898, "196": -0.04308353313668725, "197": 0.06022411053836058, "198": 0.08479184075018409, "199": -0.06060841299437415}}, {"sx": 5, "sy": 5, "depth": 8, "w": {"0": -0.21860682362657474, "1": -0.024385053380037883, "2": -0.11062113625045833, "3": -0.10794928255155356, "4": 0.11209687225814599, "5": 0.1321467815508717, "6": 0.07141977182625335, "7": -0.061186443903769434, "8": -0.21713230452182017, "9": -0.10742135765057212, "10": -0.09821830579196977, "11": 0.07489443446829189, "12": -0.02804343489276073, "13": 0.024791479259996467, "14": 0.015421528237902543, "15": 0.06595153940310443, "16": -0.14286160593653963, "17": -0.027657028766691502, "18": -0.13890074434476354, "19": 0.028779028445400846, "20": -0.04108699104257429, "21": 0.13455779001458842, "22": -0.04242152304442988, "23": -0.05493992569242791, "24": -0.17555994439643954, "25": -0.08121557425378172, "26": -0.0789101676305102, "27": -0.1345847455982143, "28": 0.05241762948049555, "29": 0.06697545688513314, "30": 0.1410227000942425, "31": -0.14425834876722704, "32": -0.02879587625407823, "33": -0.053968458002220394, "34": -0.2649829598661953, "35": -0.2163625582782012, "36": -0.05851866448090429, "37": 0.17179958006350254, "38": 0.017470766096900826, "39": -0.15696414019769359, "40": -0.18254703550960408, "41": -0.1868234994800115, "42": -0.054376870178034366, "43": -0.3200865108319003, "44": 0.04904986688394324, "45": 0.10384903199671933, "46": 0.09966316304165235, "47": -0.21624210911786254, "48": -0.16195151777159278, "49": -0.12470094865680159, "50": 0.0398106414295131, "51": -0.11844609516487149, "52": 0.08444191277114621, "53": -0.012707465779201515, "54": -0.0059378947932288715, "55": 0.04062930136105093, "56": -0.06375838372985895, "57": -0.1728866066161906, "58": -0.0034401332825490915, "59": -0.08882407876000056, "60": 0.048553721084102525, "61": 0.01391568422939491, "62": 0.03571697111953736, "63": -0.0741130039709112, "64": -0.09237394395275476, "65": -0.07539221340957165, "66": -0.10199819220708049, "67": -0.047298408944178964, "68": 0.05237137329582189, "69": 0.16422124218791484, "70": 0.003262010150204594, "71": -0.06030180495570654, "72": -0.17660829522395471, "73": -0.013582690226659278, "74": -0.10930986803278991, "75": -0.21604718440315399, "76": 0.06258670023734826, "77": 0.05736255142285409, "78": 0.10031112780721131, "79": -0.10212420198936573, "80": -0.18413954123246035, "81": -0.15794718307233105, "82": -0.059837569343685455, "83": -0.22526745541261423, "84": -0.06004305805291318, "85": 0.058342700482611705, "86": 0.12371925858721565, "87": -0.024022353170466134, "88": 0.011835378526343997, "89": -0.10422116981089799, "90": -0.08721737293102003, "91": -0.054179404312154254, "92": -0.019216895507150302, "93": 0.08115925409061309, "94": 0.008800275468859095, "95": -0.12276647214116353, "96": -0.052947178405134916, "97": -0.27070745079269354, "98": -0.2286876785899406, "99": -0.08670840109430393, "100": -0.04801883734817794, "101": 0.010428960396232697, "102": -0.05590045340440087, "103": -0.035232937924568344, "104": -0.08027547672780071, "105": 0.0023434191783274503, "106": -0.11686168104568323, "107": -0.14638843106376617, "108": -0.09681786052771864, "109": 0.07552149967162652, "110": 0.08742104757493734, "111": -0.06353807433297075, "112": -0.08232622436370626, "113": -0.1496957438932211, "114": -0.11285551925873386, "115": -0.3021976832744043, "116": -0.01449330413187979, "117": 0.09744121540985655, "118": 0.1422217226159301, "119": -0.14633896565312196, "120": -0.07317013464745968, "121": -0.22013613527491432, "122": -0.05386438019374502, "123": -0.18659870408731147, "124": 0.039508986942879194, "125": 0.03925283443715086, "126": 0.09330002037483036, "127": -0.005593477275670637, "128": -0.08430436656258078, "129": -0.0697769732023523, "130": -0.10986287597740811, "131": -0.06390082483468063, "132": 0.06146254619293768, "133": 0.06968771914854748, "134": 0.15053622471326222, "135": -0.024985742473782678, "136": -0.10674613449428137, "137": -0.1122164788967999, "138": -0.047776704099072226, "139": -0.06205296960439524, "140": 0.0015342047256358669, "141": -0.050790241025482526, "142": 0.0023417854566322623, "143": -0.08445528704072869, "144": -0.13413931509890487, "145": -0.09047289702746641, "146": -0.023748836708452327, "147": -0.14349959204242618, "148": -0.0376825693692202, "149": -0.11726740092781829, "150": 0.053691034058358955, "151": -0.06088285563542881, "152": -0.024437629185005683, "153": -0.04937958325526192, "154": -0.2561475328613517, "155": -0.2953320340146107, "156": -0.11417512169693333, "157": 0.15676021718556646, "158": -0.04291285784835475, "159": -0.05693934693510212, "160": -0.0642949770883255, "161": -0.2171362963480344, "162": 0.02184666925293789, "163": -0.25843297297621265, "164": 0.12274183232541604, "165": 0.11982023542387338, "166": 0.20937261293698267, "167": -0.030689091880793887, "168": -0.056144143901330275, "169": -0.11534183331146974, "170": 0.02316771752978142, "171": -0.13142655822901136, "172": 0.017083451082200645, "173": -0.059718559658377024, "174": 0.06174328601414139, "175": -0.01382800299047256, "176": -0.1698606963946463, "177": -0.0058645284539469615, "178": -0.14806038339925817, "179": -0.15485383442093092, "180": -0.05633371921975197, "181": 0.13486391704691877, "182": -0.016448880287697604, "183": -0.11890395482604749, "184": -0.04171419021894051, "185": -0.14357703077192788, "186": -0.033174439189923306, "187": -0.09673046152489444, "188": 0.02887299705087304, "189": 0.22027328586246445, "190": -0.1019308238868856, "191": -0.1835048899314037, "192": -0.17952448652494715, "193": -0.027566799590183322, "194": -0.022331706534470988, "195": -0.23736153848706876, "196": -0.048652313176225426, "197": 0.07296611327071936, "198": 0.07209995229244995, "199": -0.04461488333377105}}, {"sx": 5, "sy": 5, "depth": 8, "w": {"0": -0.11022286723333966, "1": 0.09156414050617101, "2": -0.060970081881774184, "3": -0.15620242744372426, "4": 0.09594675324348813, "5": 0.17139948848063605, "6": 0.28225361548683114, "7": 0.02360728988188248, "8": -0.0861548999761141, "9": -0.1236231354782183, "10": -0.22239219459255766, "11": -0.1564945071495589, "12": 0.14757350540958508, "13": 0.2566357303492788, "14": 0.23141764247199184, "15": -0.09369740335413662, "16": -0.12066152303207626, "17": -0.3181158529553191, "18": -0.12524557774900155, "19": -0.13576743260529245, "20": 0.22184393426782384, "21": 0.12345876772767238, "22": 0.10797172457755345, "23": -0.1619039565983392, "24": -0.22252219158135111, "25": -0.3112660613528373, "26": -0.34553835590583415, "27": -0.26247095713100055, "28": 0.1196987919070843, "29": 0.23450350542856851, "30": 0.20833864692770293, "31": -0.29368279337136377, "32": -0.21310956818215904, "33": -0.29669013337187533, "34": -0.2923150012351182, "35": -0.3363795979677195, "36": 0.15267107322777462, "37": 0.3312604672581602, "38": 0.3609545954907016, "39": -0.2711598803008581, "40": -0.09399418418927968, "41": -0.17405770142763372, "42": -0.02331936091723759, "43": -0.11154918092572298, "44": 0.23213816987477917, "45": 0.2766423661848224, "46": 0.19353290033658924, "47": -0.13985082184182085, "48": -0.1233269933660146, "49": -0.17808021890587664, "50": -0.08224282758590266, "51": -0.10988889583801445, "52": 0.1296110410364976, "53": 0.18552191123462702, "54": 0.19535313635546966, "55": -0.09927075938171738, "56": -0.17976818378960877, "57": -0.3075987034035748, "58": -0.20502487120695195, "59": -0.30536219554026783, "60": 0.1424205537535537, "61": 0.10796837338022797, "62": 0.056840479335008624, "63": -0.4101834653189418, "64": 0.061016185539518764, "65": -0.3615775627371037, "66": -0.16586338688769145, "67": -0.5196803153599606, "68": 0.22884267385329193, "69": 0.40257179152085076, "70": 0.24300937430225514, "71": -0.2755781543063147, "72": 0.08542220073629746, "73": 0.034450502401680294, "74": 0.05418288042100884, "75": -0.3141482632846872, "76": 0.41769829597165054, "77": 0.2860753402062634, "78": 0.1841006674904272, "79": -0.06595863129911883, "80": -0.05766083195062619, "81": -0.15151593409351094, "82": -0.04682911604994006, "83": -0.14431799316704733, "84": 0.12327168227904173, "85": 0.062143829233524545, "86": 0.041346484095026184, "87": -0.16196152521802498, "88": -0.14399411248976077, "89": -0.14550697522380843, "90": -0.020104767400210263, "91": -0.16044351345355742, "92": 0.2117468190851441, "93": 0.028426368047087876, "94": 0.0932947270778762, "95": -0.1435338280086487, "96": -0.17363043239470297, "97": -0.3342138819997, "98": -0.3153426927361154, "99": -0.517470385713901, "100": 0.15785437105797714, "101": -0.017951387083737506, "102": -0.010776420049487171, "103": -0.3748308934192807, "104": -0.06447520885005918, "105": -0.04948402731425725, "106": -0.060089373849367814, "107": -0.14682552767894286, "108": 0.23174225367054765, "109": 0.10667107552267344, "110": 0.10539943649705596, "111": -0.09375364421170272, "112": -0.19680171417428816, "113": 0.2026760349924849, "114": 0.2709010893309304, "115": 0.10120043911907559, "116": 0.10699937389447575, "117": -0.2766843882487623, "118": -0.0889496004813489, "119": 0.20451876064063534, "120": 0.04694227255538868, "121": -0.10850593629937547, "122": 0.09757331729957243, "123": -0.019846270227798148, "124": -0.08043192508203456, "125": -0.09888295375280608, "126": -0.08216058144741967, "127": 0.1365542453258508, "128": -0.01385030932775201, "129": -0.09589510011290046, "130": -0.17530084895961362, "131": -0.19770546472903539, "132": -0.017354013507896688, "133": 0.0165971286511258, "134": -0.013918071479287274, "135": -0.20844144055341235, "136": 0.007625593403096507, "137": -0.14328707048017997, "138": -0.13866381161151453, "139": -0.47200773168077165, "140": 0.26413381541207154, "141": -0.09666619965732243, "142": 0.027419608214805068, "143": -0.2233050802908125, "144": -0.19374308906636276, "145": 0.07085183532659185, "146": 0.09954677042775055, "147": -0.0029294491166546354, "148": 0.014205898531340227, "149": -0.3029333667750437, "150": -0.18305799318640342, "151": -0.02806623530436633, "152": -0.3200495053746314, "153": 0.02135923465920366, "154": -0.1649684882412601, "155": -0.019513619354758868, "156": -0.4176721723177176, "157": -0.48912748059027994, "158": -0.5034328849706412, "159": 0.052511343642115065, "160": 0.04652607637861244, "161": 0.12677358008584855, "162": -0.03188911630077932, "163": 0.14406120381311385, "164": -0.29395819732400036, "165": -0.07309156340711623, "166": -0.08295265185399224, "167": 0.057811569177666874, "168": 0.0665033893386865, "169": -0.02167144027179115, "170": -0.12636187097710738, "171": -0.20395784650547583, "172": 0.20646385329250186, "173": 0.15103102646383457, "174": 0.09408776305679033, "175": -0.11213442726933855, "176": -0.05035299487440608, "177": 0.12006876985320152, "178": 0.010997323344235293, "179": -0.19574702268499758, "180": 0.09939935596218441, "181": -0.15005872209496268, "182": -0.12465112167037473, "183": 0.11643756471535605, "184": -0.0014987640613295388, "185": 0.1071753942476166, "186": -0.05773005948444506, "187": 0.17733491946937652, "188": -0.5021111891174577, "189": -0.5137845748535905, "190": -0.43684491007225995, "191": 0.20748050764437806, "192": 0.19841199623858996, "193": 0.011599166525345853, "194": -0.27966831292876004, "195": 0.16696121572446113, "196": -0.41161953920639605, "197": -0.33177166946649056, "198": -0.3292450049063921, "199": 0.140620843383589}}, {"sx": 5, "sy": 5, "depth": 8, "w": {"0": -0.07307714890859555, "1": -0.21153081709171825, "2": -0.07827555708839616, "3": -0.18792158967233516, "4": 0.046917903692628764, "5": 0.15433993053372386, "6": 0.045198590662023044, "7": -0.19059042327522374, "8": -0.09022457099111167, "9": -0.06295393771743478, "10": -0.0018070280209515753, "11": -0.20476999864288875, "12": 0.04854460359692816, "13": 0.18831629437005418, "14": -0.04561522908351741, "15": -0.13808855824053295, "16": -0.006052272689302894, "17": -0.17412839669926716, "18": -0.004856905726653162, "19": -0.1609688178630648, "20": -0.000919763472574123, "21": 0.14118776717206352, "22": 0.00766457571162442, "23": -0.019343217506635615, "24": 0.04104700064146197, "25": -0.29466494087012096, "26": -0.04176274275223103, "27": -0.11619938586071923, "28": -0.11134183722019997, "29": 0.022289104356792485, "30": -0.035872747895602485, "31": -0.0781039802881922, "32": 0.042412848711049354, "33": -0.058369365987254763, "34": -0.17188735882788242, "35": -0.15737799659178742, "36": 0.029475408673970714, "37": 0.07306719705833635, "38": -0.1704208342891, "39": -0.05074856971335253, "40": -0.11063624477124143, "41": -0.2127386089680443, "42": -0.013115659207875814, "43": -0.026388040806639607, "44": 0.10127850662693617, "45": 0.061498202232862884, "46": 0.0217408072061151, "47": -0.04851863974963416, "48": 0.04323733635955458, "49": -0.020924111924138303, "50": -0.17329577010329536, "51": -0.06512226887216467, "52": -0.0540587481815628, "53": 0.15535759975355695, "54": 0.044061365728755825, "55": -0.07775566292203999, "56": -0.11937702048614937, "57": -0.12621236188502435, "58": -0.15659526382295674, "59": -0.1605757638259472, "60": 0.007889311041952656, "61": 0.06374644108942878, "62": 0.026064698272815823, "63": 0.019958800456438736, "64": 0.012610940022482265, "65": -0.21657615557660587, "66": -0.12471245890734509, "67": -0.1267538370015318, "68": -0.10778059297314696, "69": 0.07615122028411354, "70": 0.007644385222984383, "71": -0.10060720004094945, "72": -0.15015643689879524, "73": -0.042883204847355194, "74": -0.11605761691797362, "75": -0.22283032303072836, "76": 0.11625234036620823, "77": -0.06485450767266407, "78": -0.09880138839739258, "79": -0.05715939101272236, "80": 0.02102724262948905, "81": -0.08579410910461557, "82": -0.09035784577778991, "83": -0.13102830933286136, "84": -0.09023362894973214, "85": 0.0036400878376746295, "86": 0.012663662115310491, "87": -0.0987842067925829, "88": -0.13365130712818438, "89": -0.17330514176789497, "90": -0.15903241576761298, "91": -0.09968845434196161, "92": 0.041796929114168026, "93": 0.053722161916171504, "94": -0.02148856409452456, "95": -0.05232352961090729, "96": -0.02586211888034798, "97": -0.09102187697938458, "98": -0.055598381679084014, "99": -0.2696133236839772, "100": 0.05224821538537316, "101": -0.07255417357201335, "102": 0.146264680835877, "103": -0.15935668897599375, "104": 0.0767661861127568, "105": -0.014168900251865141, "106": -0.11211612152320934, "107": -0.07834854708320428, "108": -0.08165564193650517, "109": -0.05623148369789196, "110": -0.12560207488076866, "111": -0.021926531452098948, "112": -0.10049596584581161, "113": -0.013318305252706227, "114": -0.15937167797458948, "115": 0.05963608563076735, "116": -0.07910117693659516, "117": -0.03240194194264841, "118": -0.07213760016755058, "119": -0.12464228265711294, "120": -0.07147861561426962, "121": -0.06493314192068456, "122": -0.09574595066009006, "123": -0.06445073727604808, "124": -0.05975360202071512, "125": 0.052581988461217165, "126": 0.11135838915149864, "127": -0.1456476691369867, "128": 0.014816167470915124, "129": -0.11893853100045618, "130": -0.11314145071574383, "131": -0.1517631735766043, "132": 0.08141773899836516, "133": 0.040397397180546885, "134": 0.056754095649375724, "135": 0.017481978460720454, "136": -0.06798581761135064, "137": -0.21893308900740827, "138": -0.08080489394408505, "139": -0.21877833245951148, "140": 0.06711142306242972, "141": -0.11904515364423753, "142": 0.03394489149426395, "143": -0.07143203944932876, "144": -0.08862184600984238, "145": -0.09457507791244066, "146": -0.09356300132485511, "147": 0.05823712071568085, "148": -0.16286956926784815, "149": -0.12298819491341507, "150": -0.1187679143739988, "151": -0.12586246667482992, "152": -0.03889013093666972, "153": -0.025245620410413207, "154": 0.10944079637086312, "155": 0.012079605973220742, "156": -0.005654796563472999, "157": -0.25663512667199895, "158": -0.1543101029144927, "159": 0.03119874899629353, "160": -0.1952626209223771, "161": -0.0859353007428435, "162": -0.1241761985840145, "163": -0.3222966364923062, "164": 0.1378479906156309, "165": 0.06014999068682311, "166": 0.0999067947719682, "167": -0.11626948407775997, "168": -0.06615503178844775, "169": 0.0015970900714975455, "170": -0.11722567418612796, "171": -0.14979745350681278, "172": 0.11260907549565158, "173": 0.015583203742854265, "174": -0.0057078641969019375, "175": -0.09805980387070307, "176": -0.05672551590371202, "177": -0.11158726640558654, "178": -0.15605446872698187, "179": -0.07459923599749037, "180": -0.07891875846784745, "181": -0.11980181673305389, "182": 0.09235468076354919, "183": -0.03989337951797221, "184": -0.07573366020187983, "185": -0.046597791163698346, "186": -0.08109270601655232, "187": 0.003273346406206263, "188": -0.17269285175602386, "189": -0.03238799539671011, "190": 0.036141203315097126, "191": -0.04182902084049055, "192": -0.10977474765307987, "193": -0.04566252834129033, "194": 0.028205375306630177, "195": -0.07963863992780966, "196": -0.1218987790643569, "197": -0.029344035053494685, "198": -0.12891534030582147, "199": 0.005604796682911293}}, {"sx": 5, "sy": 5, "depth": 8, "w": {"0": -0.13013733735872254, "1": 0.014963236611575781, "2": 0.03307600629463576, "3": 0.014650181431730904, "4": 0.37140262442508976, "5": -0.0707086727538796, "6": -0.11011673452615238, "7": 0.05131354612936758, "8": -0.03805216095033684, "9": 0.16933934504781795, "10": 0.04266414264395836, "11": 0.12894130137250306, "12": -0.32474702219069085, "13": -0.4730618984782052, "14": -0.5663288337356771, "15": 0.18043933033365772, "16": 0.023238541792101594, "17": 0.030393793587468135, "18": -0.16964586723518826, "19": 0.14914267669686926, "20": -0.46401269366298686, "21": -0.28304563075982575, "22": -0.4445368470079216, "23": 0.09607714252817351, "24": -0.017674813398597382, "25": -0.053858353810851814, "26": -0.06875853070925797, "27": -0.15840680619033287, "28": -0.07614256872274862, "29": -0.1443353915629388, "30": 0.0361682073322556, "31": 0.03480279138086298, "32": 0.025381204132288324, "33": 0.01170709250376773, "34": 0.14316045952631987, "35": -0.03595204215622623, "36": -0.12368215218735958, "37": -0.2641318904505814, "38": -0.21284562342602695, "39": -0.09518253558726114, "40": -0.11080107540097005, "41": 0.13636913789133784, "42": 0.13011303305929814, "43": 0.2779841197910575, "44": 0.08907506338998056, "45": -0.27319575360663584, "46": -0.3794069667612022, "47": 0.2766531925739175, "48": 0.017695121840123867, "49": 0.14153176441232368, "50": -0.004870960818979529, "51": 0.19400862363112892, "52": -0.4407542437462709, "53": -0.16002364635520294, "54": -0.3192411107446911, "55": 0.3045503604512247, "56": -0.1423393536913538, "57": 0.09146260356195719, "58": -0.1066354740056466, "59": -0.052788466720578006, "60": -0.1414203552663921, "61": -0.23032668719331334, "62": -0.06325032919304023, "63": -0.0117081637028749, "64": -0.22625353967043796, "65": -0.11266771720708178, "66": -0.14127588406651254, "67": 0.009481367215468441, "68": -0.07528433159561726, "69": -0.049767740746607135, "70": 0.08810301728574274, "71": -0.11674454198144789, "72": 0.022539247721358346, "73": 0.036087789938624174, "74": -0.14557002960762735, "75": 0.03755628502967378, "76": -0.17053175818950367, "77": -0.14694602742764198, "78": -0.297895161569238, "79": -0.026580896250928486, "80": 0.0033932644830331343, "81": 0.3798996363791305, "82": 0.314157869757325, "83": 0.407055722022626, "84": -0.5002751521680447, "85": -0.587180915746692, "86": -0.6879165884376844, "87": 0.4172381687489846, "88": -0.04619563299493603, "89": 0.2960338095842708, "90": -0.09040667065239491, "91": 0.2416797870647661, "92": -0.1688554234080656, "93": -0.1303322036309481, "94": -0.08501203011930236, "95": 0.2286474791650405, "96": -0.371171843741146, "97": -0.13085252778387627, "98": -0.29745983753592736, "99": -0.1318975292479755, "100": 0.0026158677487509397, "101": 0.09219642063542062, "102": 0.036639743367793694, "103": -0.18432237680867672, "104": -0.1981195582259128, "105": -0.02355627651312965, "106": -0.047680218595202564, "107": -0.09978652911824713, "108": 0.24212958015092764, "109": 0.24821546588105461, "110": 0.12266645576526526, "111": -0.12578083075644605, "112": -0.07982612150869899, "113": 0.04378639070866074, "114": -0.21763002549571367, "115": 0.06066462802455341, "116": -0.02753012456754423, "117": -0.04932636142392899, "118": -0.07090884288564372, "119": 0.06614645969596955, "120": -0.13460589931685946, "121": 0.30749569535326876, "122": -0.2602530274672812, "123": 0.3498571021636021, "124": -0.46515916181732264, "125": -0.25779087076101215, "126": -0.008190913607852042, "127": 0.040614648700271025, "128": -0.23786899446575716, "129": 0.10895773976100628, "130": -0.4260866188143237, "131": -0.14586155396743666, "132": 0.1324470242897849, "133": 0.05634760403282173, "134": 0.33871280496502254, "135": -0.15015470759112015, "136": -0.2927304010298729, "137": -0.1071056243489075, "138": -0.31752885957046256, "139": -0.42435944809772724, "140": 0.18693910393894023, "141": 0.1650417117016783, "142": 0.1651573223719181, "143": -0.36214235154001195, "144": -0.21448254533691977, "145": -0.1643925967785567, "146": -0.0878308781237269, "147": -0.08286186810654977, "148": 0.05446515211316343, "149": 0.05525551915997272, "150": 0.052481896177297926, "151": -0.038519794966401975, "152": -0.07906705678241167, "153": -0.10369805988580398, "154": -0.2099770253603793, "155": -0.07681184420848249, "156": 0.03823183706827017, "157": -0.07436583475034386, "158": -0.08066258186919328, "159": 0.07315066225326924, "160": -0.26553974531299135, "161": -0.12084674063150148, "162": -0.4202950873183674, "163": -0.1318359373219041, "164": 0.13849147810390974, "165": 0.20762619221173775, "166": 0.38087581334742504, "167": -0.40158020492104846, "168": -0.29325080730500513, "169": -0.31033914362338066, "170": -0.4380645299777069, "171": -0.5483701315254428, "172": 0.24050116799176266, "173": 0.2539071229150747, "174": 0.36182409639997787, "175": -0.39261213209667556, "176": -0.23554748872929876, "177": -0.1673722795956424, "178": -0.17614415100865496, "179": -0.35165188958224397, "180": 0.18749470568721305, "181": 0.09836301112228005, "182": 0.2488371114922178, "183": -0.33949950799676415, "184": -0.06327736359485485, "185": -0.14456000256017695, "186": -0.05815416214607134, "187": 0.0025550142403046715, "188": 0.21924396730317983, "189": 0.08513627727192746, "190": 0.24742795682293783, "191": 0.09672133794928571, "192": 0.08860261920262695, "193": -0.1320113881799647, "194": -0.0009723504996352241, "195": -0.02147438215832035, "196": 0.17497782504704917, "197": 0.13332860184782835, "198": 0.09908067847687184, "199": -0.03860471154155665}}], "biases": {"sx": 1, "sy": 1, "depth": 16, "w": {"0": -0.19165730791691704, "1": -0.13985837055872782, "2": -0.18521340599379083, "3": -0.055398341140178914, "4": -0.14046464806395467, "5": -0.1402189662310066, "6": -0.13676667045657073, "7": -0.11822282870815927, "8": -0.1382249171056554, "9": -0.09630516583446697, "10": -0.09847293704383656, "11": -0.048815381452484874, "12": -0.045287387165524225, "13": -0.14299243238228462, "14": -0.07985838350682149, "15": -0.10038491077669802}}}, {"out_depth": 16, "out_sx": 12, "out_sy": 12, "layer_type": "sigmoid"}, {"sx": 3, "sy": 3, "stride": 3, "in_depth": 16, "out_depth": 16, "out_sx": 4, "out_sy": 4, "layer_type": "pool", "pad": 0}, {"out_depth": 10, "out_sx": 1, "out_sy": 1, "layer_type": "fc", "num_inputs": 256, "l1_decay_mul": 0, "l2_decay_mul": 1, "filters": [{"sx": 1, "sy": 1, "depth": 256, "w": {"0": 0.1283079396599669, "1": -0.03137761218856342, "2": 0.015830172379625203, "3": -0.008061113889255804, "4": 0.07181108028199956, "5": -0.0894742902141967, "6": -0.13265686806180046, "7": -0.025003142487562104, "8": -0.06459727526272742, "9": -0.11932456241748582, "10": -0.009905582829254744, "11": 0.03352683623446741, "12": 0.02017080828529892, "13": 0.13457834526938578, "14": 0.12010936666354277, "15": -0.011671016223614359, "16": -0.12623618051635266, "17": 0.041210852520488984, "18": 0.05811839693578376, "19": -0.03698090194276972, "20": -0.02647717102970705, "21": 0.20882753706897877, "22": -0.03717225354204292, "23": 0.006011461303651595, "24": 0.006835500447104125, "25": 0.07219768754837443, "26": 0.03924479297755299, "27": -0.07765808503329459, "28": 0.004506293011091844, "29": 0.1854739090217279, "30": 0.1064085507186085, "31": 0.04070717698050653, "32": -0.08239202687340358, "33": -0.09691909384347637, "34": -0.061541843373030515, "35": -0.13958870802594728, "36": -0.10144136297287434, "37": -0.022040382754831854, "38": 0.1405998842572283, "39": -0.2215688585213539, "40": 0.05813061238048616, "41": 0.15837849620118416, "42": -0.1566680052914498, "43": -0.09924927367248011, "44": -0.11556715700320573, "45": -0.03969330825738041, "46": 0.0011684583757832715, "47": -0.005258145615825687, "48": 0.01643120011372943, "49": 0.005883114320200593, "50": 0.03843936700208095, "51": -0.00753681730940428, "52": 0.05109988678475886, "53": 0.04233027185364051, "54": 0.04294766074359588, "55": -0.17435966574587977, "56": 0.1331668407284081, "57": -0.03791318729677555, "58": -0.09988593065499218, "59": -0.03537965748860058, "60": -0.20355898702222797, "61": -0.003991974237406472, "62": -0.037228923041822314, "63": -0.27829763311751554, "64": -0.27945504174017477, "65": 0.006440195463120489, "66": -0.43706460385447443, "67": -0.060193813103203944, "68": 0.014184449954891798, "69": 0.16053751990951642, "70": -0.20912785997891908, "71": -0.5573978511443317, "72": 0.14248638156688564, "73": 0.29054481129865745, "74": -0.5973946867566227, "75": 0.019510259999582558, "76": -0.07480362488988775, "77": 0.13035681688362247, "78": -0.052503999053217926, "79": -0.1382310182372123, "80": -0.6303936185319965, "81": -0.048154030681830114, "82": 0.14612692179529907, "83": -0.06781069947681645, "84": -0.1208320601869927, "85": 0.20941286563076467, "86": -0.27428943373667036, "87": 0.23971203872482003, "88": -0.1890656926201186, "89": -0.07711660060443594, "90": -0.5107410714564851, "91": -0.06323469207414813, "92": -0.12319273675485644, "93": 0.11667254202320956, "94": -0.06953632023497155, 